{"learner":{"attributes":{"scikit_learn":"{\"_estimator_type\": \"regressor\"}"},"feature_names":["Released_Year","Runtime","No_of_Votes"],"feature_types":["int","int","int"],"gradient_booster":{"model":{"gbtree_model_param":{"num_parallel_tree":"1","num_trees":"300"},"iteration_indptr":[0,1,2,3,4,5,6,7,8,9,10,11,12,13,14,15,16,17,18,19,20,21,22,23,24,25,26,27,28,29,30,31,32,33,34,35,36,37,38,39,40,41,42,43,44,45,46,47,48,49,50,51,52,53,54,55,56,57,58,59,60,61,62,63,64,65,66,67,68,69,70,71,72,73,74,75,76,77,78,79,80,81,82,83,84,85,86,87,88,89,90,91,92,93,94,95,96,97,98,99,100,101,102,103,104,105,106,107,108,109,110,111,112,113,114,115,116,117,118,119,120,121,122,123,124,125,126,127,128,129,130,131,132,133,134,135,136,137,138,139,140,141,142,143,144,145,146,147,148,149,150,151,152,153,154,155,156,157,158,159,160,161,162,163,164,165,166,167,168,169,170,171,172,173,174,175,176,177,178,179,180,181,182,183,184,185,186,187,188,189,190,191,192,193,194,195,196,197,198,199,200,201,202,203,204,205,206,207,208,209,210,211,212,213,214,215,216,217,218,219,220,221,222,223,224,225,226,227,228,229,230,231,232,233,234,235,236,237,238,239,240,241,242,243,244,245,246,247,248,249,250,251,252,253,254,255,256,257,258,259,260,261,262,263,264,265,266,267,268,269,270,271,272,273,274,275,276,277,278,279,280,281,282,283,284,285,286,287,288,289,290,291,292,293,294,295,296,297,298,299,300],"tree_info":[0,0,0,0,0,0,0,0,0,0,0,0,0,0,0,0,0,0,0,0,0,0,0,0,0,0,0,0,0,0,0,0,0,0,0,0,0,0,0,0,0,0,0,0,0,0,0,0,0,0,0,0,0,0,0,0,0,0,0,0,0,0,0,0,0,0,0,0,0,0,0,0,0,0,0,0,0,0,0,0,0,0,0,0,0,0,0,0,0,0,0,0,0,0,0,0,0,0,0,0,0,0,0,0,0,0,0,0,0,0,0,0,0,0,0,0,0,0,0,0,0,0,0,0,0,0,0,0,0,0,0,0,0,0,0,0,0,0,0,0,0,0,0,0,0,0,0,0,0,0,0,0,0,0,0,0,0,0,0,0,0,0,0,0,0,0,0,0,0,0,0,0,0,0,0,0,0,0,0,0,0,0,0,0,0,0,0,0,0,0,0,0,0,0,0,0,0,0,0,0,0,0,0,0,0,0,0,0,0,0,0,0,0,0,0,0,0,0,0,0,0,0,0,0,0,0,0,0,0,0,0,0,0,0,0,0,0,0,0,0,0,0,0,0,0,0,0,0,0,0,0,0,0,0,0,0,0,0,0,0,0,0,0,0,0,0,0,0,0,0,0,0,0,0,0,0,0,0,0,0,0,0,0,0,0,0,0,0,0,0,0,0,0,0,0,0,0,0,0,0],"trees":[{"base_weights":[2.2150778E-7,-4.5665216E-2,3.7800857E-1,7.725838E-2,-7.236197E-2,2.563876E-1,6.856769E-1,-4.711443E-3,2.5768623E-1,-9.6622355E-2,5.2777722E-2,3.7330264E-1,1.2041864E-1,7.4867226E-2,3.0891672E-1,-2.8977755E-2,1.0066693E-1,1.7653815E-1,3.5294113E-1,-1.0400686E-1,1.0748668E-1,4.264344E-2,4.3380037E-2,3.8604903E-1,-7.464981E-3,8.925167E-2,3.6302496E-2,2.5350095E-3,3.6056004E-2,1.11733705E-1,-4.3886494E-2,1.8814199E-1,-1.4369821E-2,2.1667224E-1,-5.9439946E-2,3.6257163E-2,7.5350287E-3,-1.1175625E-1,1.2523902E-2,2.7563038E-1,-3.012283E-2,6.490338E-2,-4.724564E-2,6.005602E-2,3.466273E-1,1.6628146E-1,2.316525E-2,1.3186288E-2,-2.464986E-3,-1.9943992E-2,-3.348582E-2,-7.464981E-3,2.1881849E-1,-1.3697481E-1,5.7743005E-2,2.2775441E-1,-2.464986E-3,1.0046673E-1,-1.9953331E-2,-1.3701849E-1,-8.430237E-2,-3.158042E-2,1.8186265E-1,8.802533E-2,3.434575E-1,-8.826653E-2,8.05604E-2,1.0938694E-2,1.0068793E-1,2.8802514E-2,-1.0885695E-1,2.8956324E-2,4.55182E-2,-1.2465E-2,1.939869E-1,-8.511414E-2,7.565028E-2,2.7461002E-2,-6.5659374E-2,1.443628E-1,3.1302524E-1,-2.464986E-3,-1.6619986E-2,7.558346E-2,-2.464986E-3,1.6987716E-1,2.7147522E-2,1.2535E-2,2.5350095E-3,-1.4262363E-1,-7.045966E-3,-1.1176012E-2,-1.0425593E-1,3.4000214E-2,-1.5390886E-1,2.6302505E-2,8.056021E-2,1.0046705E-2,2.5350095E-3,4.005604E-2,1.338002E-2,4.0560246E-2,-1.9944001E-2,1.1302543E-2,-2.464986E-3,-2.1197498E-2,3.5403028E-2,1.9788347E-1,5.443274E-2,-1.4670505E-1,1.6713334E-2,5.601883E-4,2.6427296E-1,3.3800125E-3,-1.3943987E-1,9.295412E-2,-7.464981E-3,-3.6780108E-3,1.4225038E-2,-8.229338E-2,7.558354E-2,1.7558368E-2,3.3800125E-3,3.6713347E-2,7.5350287E-3,4.056015E-3,1.2535E-2,2.3186266E-2,5.8916967E-2,-1.18102044E-1,-1.6413225E-1,1.1488581E-1,-1.2797117E-1,-5.49975E-2,1.10031575E-1,-2.1537526E-2,-1.2579207E-1,1.3395575E-1,-3.781517E-2,-2.5943995E-2,-5.6542534E-2,-6.1974883E-2,3.2535028E-2,4.6682358E-4,6.713358E-3,-7.082844E-2,5.9010267E-2,2.1242367E-1,-2.464986E-3,3.262525E-2,2.005601E-1,4.669825E-4,-1.6404688E-1,-1.2465E-2,6.302524E-3,2.8563023E-1,2.5350095E-3,-1.8697489E-2,2.5350095E-3,6.563034E-2,1.3802505E-1,4.128152E-2,-9.3137324E-2,-1.0577397E-1,-3.4635037E-2,1.338002E-2,1.3025165E-2,4.6682358E-4,8.802533E-3,-1.4178386E-1,1.495266E-2,-1.4510074E-1,-2.1213835E-1,1.8056002E-1,-3.2866478E-2,-2.464986E-3,-1.4108308E-1,1.2056007E-1,-7.556726E-2,-6.619978E-3,1.3993604E-1,-1.5390895E-1,2.0680279E-2,-1.543521E-1,-7.181149E-2,-7.464981E-3,1.6936266E-1,5.8916885E-2,-1.0563731E-1,-9.108305E-2,7.5350287E-3,-1.2465E-2,4.6682358E-4,2.5350095E-3,-2.464986E-3,1.0046673E-1,-1.5943985E-1,1.3713297E-2,1.8186277E-1,1.2790932E-1,3.1488568E-2,7.0235044E-2,-3.1492643E-2,2.6302505E-1,-2.464986E-3,7.5350287E-3,-7.464981E-3,-1.9519155E-1,-7.44164E-2,1.0046705E-2,3.1936264E-1,8.186287E-2,4.6682358E-4,1.6713334E-2,2.5350095E-3,-5.7749827E-3,9.154576E-3,-1.2441651E-2,4.668236E-5,-8.474557E-3,-1.5563744E-2,-6.013044E-4,-1.662E-2,-2.464986E-3,3.3800125E-3,2.5350095E-3,-2.464986E-3,-1.5070821E-2,1.488597E-3,1.3395575E-2,-6.8584294E-3,-1.4789133E-2,7.5350287E-3,-2.47474E-2,-1.2243065E-2,6.713343E-3,2.3379995E-2,2.5350095E-3,-7.464981E-3,-1.5943976E-2,-2.464986E-3,-2.464986E-3,1.6302502E-2,-1.5292128E-2,-3.2658984E-3,1.54808685E-2,3.3800125E-3,-2.4108332E-2,-4.1083097E-3,-9.108313E-3,4.234362E-3,-1.9530917E-2,-6.2176883E-3,-9.699051E-3,-7.672098E-4,6.056023E-3,2.6302505E-2,-6.1974763E-3,2.004668E-2,1.2535E-2,-1.5654264E-2,-1.1197472E-2,-3.2866478E-3,2.5350095E-3,-2.464986E-3,-7.464981E-3,2.253499E-2,-1.8697489E-2,-2.464986E-3,7.7569485E-3,-6.299977E-3,3.0046687E-2,9.225027E-3,1.7840026E-2,-6.6199936E-3,-4.313731E-3,1.2253153E-2,-1.6619986E-2,4.808545E-4,7.5350287E-3,3.0046655E-2,-2.3063738E-2,-9.943991E-3,7.5350287E-3,-1.194398E-2,3.4345724E-2,7.5350287E-3,1.0056038E-2,3.802526E-3,2.5350095E-3,-2.464986E-3],"categories":[],"categories_nodes":[],"categories_segments":[],"categories_sizes":[],"default_left":[0,0,0,0,0,0,0,0,0,0,0,0,0,0,0,0,0,0,0,0,0,0,0,0,0,0,0,0,0,0,0,0,0,0,0,0,0,0,0,0,0,0,0,0,0,0,0,0,0,0,0,0,0,0,0,0,0,0,0,0,0,0,0,0,0,0,0,0,0,0,0,0,0,0,0,0,0,0,0,0,0,0,0,0,0,0,0,0,0,0,0,0,0,0,0,0,0,0,0,0,0,0,0,0,0,0,0,0,0,0,0,0,0,0,0,0,0,0,0,0,0,0,0,0,0,0,0,0,0,0,0,0,0,0,0,0,0,0,0,0,0,0,0,0,0,0,0,0,0,0,0,0,0,0,0,0,0,0,0,0,0,0,0,0,0,0,0,0,0,0,0,0,0,0,0,0,0,0,0,0,0,0,0,0,0,0,0,0,0,0,0,0,0,0,0,0,0,0,0,0,0,0,0,0,0,0,0,0,0,0,0,0,0,0,0,0,0,0,0,0,0,0,0,0,0,0,0,0,0,0,0,0,0,0,0,0,0,0,0,0,0,0,0,0,0,0,0,0,0,0,0,0,0,0,0,0,0,0,0,0,0,0,0,0,0,0,0,0,0,0,0,0,0,0,0,0,0,0,0,0,0,0,0,0,0,0,0,0,0,0,0],"id":0,"left_children":[1,3,5,7,9,11,13,15,17,19,21,23,25,-1,27,29,31,33,35,37,39,41,-1,43,-1,45,-1,-1,-1,47,49,51,53,55,57,-1,-1,59,61,63,65,67,69,-1,71,73,75,-1,-1,-1,77,-1,79,81,83,85,-1,87,-1,89,91,93,95,97,99,101,103,105,107,-1,109,-1,-1,-1,111,113,115,117,119,121,123,-1,-1,125,-1,127,-1,-1,-1,129,131,133,135,137,139,-1,141,-1,-1,-1,-1,143,-1,-1,-1,-1,145,147,149,151,-1,153,155,-1,157,159,-1,161,-1,163,165,-1,-1,-1,-1,-1,-1,-1,167,169,171,173,175,177,179,181,183,185,187,-1,189,191,-1,193,-1,195,197,199,-1,201,203,205,207,-1,-1,209,-1,-1,-1,211,213,215,217,219,221,-1,223,225,-1,227,229,231,233,235,237,-1,239,241,243,-1,245,247,249,251,253,-1,255,257,259,261,-1,-1,263,-1,-1,265,267,269,271,273,-1,275,277,279,-1,-1,-1,281,283,-1,285,287,289,-1,-1,-1,-1,-1,-1,-1,-1,-1,-1,-1,-1,-1,-1,-1,-1,-1,-1,-1,-1,-1,-1,-1,-1,-1,-1,-1,-1,-1,-1,-1,-1,-1,-1,-1,-1,-1,-1,-1,-1,-1,-1,-1,-1,-1,-1,-1,-1,-1,-1,-1,-1,-1,-1,-1,-1,-1,-1,-1,-1,-1,-1,-1,-1,-1,-1,-1,-1,-1,-1,-1,-1,-1,-1,-1,-1,-1,-1],"loss_changes":[1.729644E1,2.9393954E0,3.8654442E0,2.3675566E0,2.2365134E0,1.210896E0,4.8074722E-1,2.8676015E-1,3.241799E-1,9.396415E-1,4.448684E-1,2.6862907E-1,2.54929E-1,0E0,7.8725636E-2,1.9580618E-1,2.140233E-1,2.875312E-1,3.1493902E-2,5.387101E-1,5.1734257E-1,2.3917563E-1,0E0,1.385417E-1,0E0,1.7431983E-1,0E0,0E0,0E0,2.7958006E-2,1.2760405E-1,1.130732E-1,9.632326E-2,7.247341E-2,1.3205577E-1,0E0,0E0,3.7544775E-1,2.89549E-1,9.701413E-2,9.077271E-2,1.8235335E-1,5.2710885E-1,0E0,9.739494E-2,1.531466E-1,1.2009986E-1,0E0,0E0,0E0,1.5671228E-1,0E0,3.1967282E-2,9.034008E-3,1.2152601E-2,1.4613152E-2,0E0,2.4298113E-3,0E0,2.095356E-1,3.9279997E-1,2.539266E-1,4.458621E-2,5.722996E-4,3.0209184E-2,1.3698843E-1,1.9864328E-2,2.2018848E-1,2.4548918E-1,0E0,2.4387914E-1,0E0,0E0,0E0,2.0377994E-1,4.993382E-2,4.3349765E-2,1.0060718E-1,1.2839067E-1,2.1680146E-2,2.3777068E-2,0E0,0E0,5.37372E-3,0E0,7.575238E-2,0E0,0E0,0E0,1.2671232E-1,2.0638219E-1,3.1942976E-1,3.7495518E-1,1.558108E-1,9.83575E-2,0E0,1.9461942E-1,0E0,0E0,0E0,0E0,5.2957414E-3,0E0,0E0,0E0,0E0,9.4461545E-2,6.347835E-2,1.2092349E-1,4.8569024E-2,0E0,4.69624E-2,4.88894E-2,0E0,4.3906294E-2,6.9509745E-3,0E0,9.635197E-2,0E0,4.893166E-2,2.0108864E-2,0E0,0E0,0E0,0E0,0E0,0E0,0E0,1.01672355E-2,4.2120016E-1,1.0169482E-1,7.385897E-2,6.0055032E-3,1.6800217E-1,9.35854E-2,2.5466225E-1,2.4791932E-1,7.911761E-2,9.151131E-2,0E0,3.875266E-2,1.5712356E-2,0E0,2.4998318E-3,0E0,1.2226935E-1,1.6445142E-1,1.06934845E-1,0E0,8.902447E-2,7.682215E-2,2.2499865E-2,3.2930255E-2,0E0,0E0,3.0374587E-2,0E0,0E0,0E0,1.0539468E-2,8.882254E-3,8.493051E-2,2.3480982E-2,1.9315451E-2,6.301671E-2,0E0,3.9639566E-3,2.4998318E-3,0E0,1.6023731E-1,2.1795154E-1,7.696867E-2,9.3326926E-2,1.4498323E-2,9.189826E-3,0E0,8.893795E-3,3.485021E-2,1.2777084E-1,0E0,1.6866773E-2,9.828627E-2,8.8597685E-2,3.9935565E-1,9.6153915E-2,0E0,6.5596685E-2,1.150971E-1,1.1369049E-1,3.6172308E-3,0E0,0E0,2.4998318E-3,0E0,0E0,8.242966E-2,1.3948336E-2,1.1755474E-1,5.730915E-2,1.19618416E-1,0E0,1.4165215E-1,6.925962E-2,5.467087E-3,0E0,0E0,0E0,1.7793417E-2,4.9457848E-2,0E0,2.1155417E-2,2.7333945E-3,2.4998318E-3,0E0,0E0,0E0,0E0,0E0,0E0,0E0,0E0,0E0,0E0,0E0,0E0,0E0,0E0,0E0,0E0,0E0,0E0,0E0,0E0,0E0,0E0,0E0,0E0,0E0,0E0,0E0,0E0,0E0,0E0,0E0,0E0,0E0,0E0,0E0,0E0,0E0,0E0,0E0,0E0,0E0,0E0,0E0,0E0,0E0,0E0,0E0,0E0,0E0,0E0,0E0,0E0,0E0,0E0,0E0,0E0,0E0,0E0,0E0,0E0,0E0,0E0,0E0,0E0,0E0,0E0,0E0,0E0,0E0,0E0,0E0,0E0,0E0,0E0,0E0,0E0,0E0,0E0],"parents":[2147483647,0,0,1,1,2,2,3,3,4,4,5,5,6,6,7,7,8,8,9,9,10,10,11,11,12,12,14,14,15,15,16,16,17,17,18,18,19,19,20,20,21,21,23,23,25,25,29,29,30,30,31,31,32,32,33,33,34,34,37,37,38,38,39,39,40,40,41,41,42,42,44,44,45,45,46,46,50,50,52,52,53,53,54,54,55,55,57,57,59,59,60,60,61,61,62,62,63,63,64,64,65,65,66,66,67,67,68,68,70,70,74,74,75,75,76,76,77,77,78,78,79,79,80,80,83,83,85,85,89,89,90,90,91,91,92,92,93,93,94,94,96,96,101,101,106,106,107,107,108,108,109,109,111,111,112,112,114,114,115,115,117,117,119,119,120,120,128,128,129,129,130,130,131,131,132,132,133,133,134,134,135,135,136,136,137,137,138,138,140,140,141,141,143,143,145,145,146,146,147,147,149,149,150,150,151,151,152,152,155,155,159,159,160,160,161,161,162,162,163,163,164,164,166,166,167,167,169,169,170,170,171,171,172,172,173,173,174,174,176,176,177,177,178,178,180,180,181,181,182,182,183,183,184,184,186,186,187,187,188,188,189,189,192,192,195,195,196,196,197,197,198,198,199,199,201,201,202,202,203,203,207,207,208,208,210,210,211,211,212,212],"right_children":[2,4,6,8,10,12,14,16,18,20,22,24,26,-1,28,30,32,34,36,38,40,42,-1,44,-1,46,-1,-1,-1,48,50,52,54,56,58,-1,-1,60,62,64,66,68,70,-1,72,74,76,-1,-1,-1,78,-1,80,82,84,86,-1,88,-1,90,92,94,96,98,100,102,104,106,108,-1,110,-1,-1,-1,112,114,116,118,120,122,124,-1,-1,126,-1,128,-1,-1,-1,130,132,134,136,138,140,-1,142,-1,-1,-1,-1,144,-1,-1,-1,-1,146,148,150,152,-1,154,156,-1,158,160,-1,162,-1,164,166,-1,-1,-1,-1,-1,-1,-1,168,170,172,174,176,178,180,182,184,186,188,-1,190,192,-1,194,-1,196,198,200,-1,202,204,206,208,-1,-1,210,-1,-1,-1,212,214,216,218,220,222,-1,224,226,-1,228,230,232,234,236,238,-1,240,242,244,-1,246,248,250,252,254,-1,256,258,260,262,-1,-1,264,-1,-1,266,268,270,272,274,-1,276,278,280,-1,-1,-1,282,284,-1,286,288,290,-1,-1,-1,-1,-1,-1,-1,-1,-1,-1,-1,-1,-1,-1,-1,-1,-1,-1,-1,-1,-1,-1,-1,-1,-1,-1,-1,-1,-1,-1,-1,-1,-1,-1,-1,-1,-1,-1,-1,-1,-1,-1,-1,-1,-1,-1,-1,-1,-1,-1,-1,-1,-1,-1,-1,-1,-1,-1,-1,-1,-1,-1,-1,-1,-1,-1,-1,-1,-1,-1,-1,-1,-1,-1,-1,-1,-1,-1],"split_conditions":[6.839E5,1.964E3,1.129952E6,1.01053E5,1.47E2,2.003E3,2.011E3,1.3E2,1.72083E5,6.16228E5,2.02E3,1.79E2,2.017E3,7.4867226E-2,1.44E2,1.93E3,1.44E2,1.961E3,2.29E2,2.018E3,2.007E3,3.57026E5,4.3380037E-2,1.976E3,-7.464981E-3,1.17E2,3.6302496E-2,2.5350095E-3,3.6056004E-2,8.177E4,2.6518E4,2.8223E4,5.2397E4,1.54E2,1.11478E5,3.6257163E-2,7.5350287E-3,1.15E2,3.3432E5,1.16E2,2.013E3,1.6E2,1.985E3,6.005602E-2,9.49565E5,9.2E1,7.57904E5,1.3186288E-2,-2.464986E-3,-1.9943992E-2,3.4677E4,-7.464981E-3,1.962E3,1.45E2,1.8E2,1.42863E5,-2.464986E-3,1.962E3,-1.9953331E-2,5.00875E5,1.99E3,1.39558E5,4.28521E5,1.997E3,2.002E3,1.19E2,6.52719E5,1.972E3,1.7E2,2.8802514E-2,1.69E2,2.8956324E-2,4.55182E-2,-1.2465E-2,7.17585E5,2.006E3,1.5E2,1.11E2,9.309E4,1.959E3,4.2285E4,-2.464986E-3,-1.6619986E-2,1.961E3,-2.464986E-3,1.2321E5,2.7147522E-2,1.2535E-2,2.5350095E-3,1.998E3,2.004E3,1.87927E5,5.1913E4,2.019E3,2.019E3,2.6302505E-2,4.7912E5,1.0046705E-2,2.5350095E-3,4.005604E-2,1.338002E-2,2.01E3,-1.9944001E-2,1.1302543E-2,-2.464986E-3,-2.1197498E-2,1.49E2,3.11365E5,2.9118E5,1.49E2,1.6713334E-2,2.01E3,2.015E3,3.3800125E-3,2.015E3,1.020727E6,-7.464981E-3,1E2,1.4225038E-2,1.955E3,9.7222E4,1.7558368E-2,3.3800125E-3,3.6713347E-2,7.5350287E-3,4.056015E-3,1.2535E-2,2.3186266E-2,1.02E2,2.46963E5,2.56906E5,5.48619E5,2.005E3,3.058E4,1.2E2,1.21E2,3.29592E5,2.6429E4,3.7605E4,-2.5943995E-2,2.02E3,1.2E2,3.2535028E-2,2.008E3,6.713358E-3,2.863E4,2.12651E5,9.8611E4,-2.464986E-3,8.3363E4,2.01E3,2.008E3,2.012E3,-1.2465E-2,6.302524E-3,2.004E3,2.5350095E-3,-1.8697489E-2,2.5350095E-3,8.87429E5,2.011E3,9.1E1,3.1572E4,1.951E3,8.2781E4,1.338002E-2,8.6E1,1.949E3,8.802533E-3,1.997E3,9.6E1,2.53228E5,2.012E3,9.3E1,1.994E3,-2.464986E-3,1.07E2,1.969E3,5.1679E4,-6.619978E-3,1.33E2,3.8746E4,3.0935E4,2.009E3,1.34E2,-7.464981E-3,1.25E2,1.21E2,9.7E1,2.37696E5,7.5350287E-3,-1.2465E-2,2.019E3,2.5350095E-3,-2.464986E-3,2.017E3,2.93811E5,7.7071E4,1.989E3,8.1125E4,3.1488568E-2,4.2285E4,1.71E2,1.979E3,-2.464986E-3,7.5350287E-3,-7.464981E-3,5.00875E5,1.54E2,1.0046705E-2,1.13E2,2.015E3,2.004E3,1.6713334E-2,2.5350095E-3,-5.7749827E-3,9.154576E-3,-1.2441651E-2,4.668236E-5,-8.474557E-3,-1.5563744E-2,-6.013044E-4,-1.662E-2,-2.464986E-3,3.3800125E-3,2.5350095E-3,-2.464986E-3,-1.5070821E-2,1.488597E-3,1.3395575E-2,-6.8584294E-3,-1.4789133E-2,7.5350287E-3,-2.47474E-2,-1.2243065E-2,6.713343E-3,2.3379995E-2,2.5350095E-3,-7.464981E-3,-1.5943976E-2,-2.464986E-3,-2.464986E-3,1.6302502E-2,-1.5292128E-2,-3.2658984E-3,1.54808685E-2,3.3800125E-3,-2.4108332E-2,-4.1083097E-3,-9.108313E-3,4.234362E-3,-1.9530917E-2,-6.2176883E-3,-9.699051E-3,-7.672098E-4,6.056023E-3,2.6302505E-2,-6.1974763E-3,2.004668E-2,1.2535E-2,-1.5654264E-2,-1.1197472E-2,-3.2866478E-3,2.5350095E-3,-2.464986E-3,-7.464981E-3,2.253499E-2,-1.8697489E-2,-2.464986E-3,7.7569485E-3,-6.299977E-3,3.0046687E-2,9.225027E-3,1.7840026E-2,-6.6199936E-3,-4.313731E-3,1.2253153E-2,-1.6619986E-2,4.808545E-4,7.5350287E-3,3.0046655E-2,-2.3063738E-2,-9.943991E-3,7.5350287E-3,-1.194398E-2,3.4345724E-2,7.5350287E-3,1.0056038E-2,3.802526E-3,2.5350095E-3,-2.464986E-3],"split_indices":[2,0,2,2,1,0,0,1,2,2,0,1,0,0,1,0,1,0,1,0,0,2,0,0,0,1,0,0,0,2,2,2,2,1,2,0,0,1,2,1,0,1,0,0,2,1,2,0,0,0,2,0,0,1,1,2,0,0,0,2,0,2,2,0,0,1,2,0,1,0,1,0,0,0,2,0,1,1,2,0,2,0,0,0,0,2,0,0,0,0,0,2,2,0,0,0,2,0,0,0,0,0,0,0,0,0,1,2,2,1,0,0,0,0,0,2,0,1,0,0,2,0,0,0,0,0,0,0,1,2,2,2,0,2,1,1,2,2,2,0,0,1,0,0,0,2,2,2,0,2,0,0,0,0,0,0,0,0,0,2,0,1,2,0,2,0,1,0,0,0,1,2,0,1,0,0,1,0,2,0,1,2,2,0,1,0,1,1,1,2,0,0,0,0,0,0,2,2,0,2,0,2,1,0,0,0,0,2,1,0,1,0,0,0,0,0,0,0,0,0,0,0,0,0,0,0,0,0,0,0,0,0,0,0,0,0,0,0,0,0,0,0,0,0,0,0,0,0,0,0,0,0,0,0,0,0,0,0,0,0,0,0,0,0,0,0,0,0,0,0,0,0,0,0,0,0,0,0,0,0,0,0,0,0,0,0,0,0,0,0,0],"split_type":[0,0,0,0,0,0,0,0,0,0,0,0,0,0,0,0,0,0,0,0,0,0,0,0,0,0,0,0,0,0,0,0,0,0,0,0,0,0,0,0,0,0,0,0,0,0,0,0,0,0,0,0,0,0,0,0,0,0,0,0,0,0,0,0,0,0,0,0,0,0,0,0,0,0,0,0,0,0,0,0,0,0,0,0,0,0,0,0,0,0,0,0,0,0,0,0,0,0,0,0,0,0,0,0,0,0,0,0,0,0,0,0,0,0,0,0,0,0,0,0,0,0,0,0,0,0,0,0,0,0,0,0,0,0,0,0,0,0,0,0,0,0,0,0,0,0,0,0,0,0,0,0,0,0,0,0,0,0,0,0,0,0,0,0,0,0,0,0,0,0,0,0,0,0,0,0,0,0,0,0,0,0,0,0,0,0,0,0,0,0,0,0,0,0,0,0,0,0,0,0,0,0,0,0,0,0,0,0,0,0,0,0,0,0,0,0,0,0,0,0,0,0,0,0,0,0,0,0,0,0,0,0,0,0,0,0,0,0,0,0,0,0,0,0,0,0,0,0,0,0,0,0,0,0,0,0,0,0,0,0,0,0,0,0,0,0,0,0,0,0,0,0,0,0,0,0,0,0,0,0,0,0,0,0,0,0,0,0,0,0,0],"sum_hessian":[1E3,8.93E2,1.07E2,1.59E2,7.34E2,7.8E1,2.9E1,1.1E2,4.9E1,6.15E2,1.19E2,4.1E1,3.7E1,2.4E1,5E0,9E1,2E1,2.8E1,2.1E1,5.94E2,2.1E1,1.17E2,2E0,4E1,1E0,3.4E1,3E0,1E0,4E0,8E0,8.2E1,1.1E1,9E0,2.4E1,4E0,2E1,1E0,5.57E2,3.7E1,9E0,1.2E1,9.4E1,2.3E1,4E0,3.6E1,1.5E1,1.9E1,7E0,1E0,4E0,7.8E1,1E0,1E1,3E0,6E0,2.3E1,1E0,2E0,2E0,2.88E2,2.69E2,3E1,7E0,3E0,6E0,8E0,4E0,3.8E1,5.6E1,3E0,2E1,2.6E1,1E1,1E0,1.4E1,6E0,1.3E1,2.7E1,5.1E1,7E0,3E0,1E0,2E0,5E0,1E0,1.2E1,1.1E1,1E0,1E0,2.76E2,1.2E1,5.8E1,2.11E2,2E1,1E1,3E0,4E0,2E0,1E0,4E0,2E0,4E0,4E0,3E0,1E0,3E0,3.5E1,1.7E1,3.9E1,1.8E1,2E0,4E0,1E1,2E0,4E0,1.2E1,1E0,2.2E1,5E0,4.6E1,5E0,5E0,2E0,2E0,1E0,4E0,1E0,7E0,5E0,1.32E2,1.44E2,6E0,6E0,4.3E1,1.5E1,4.4E1,1.67E2,8E0,1.2E1,4E0,6E0,3E0,1E0,2E0,2E0,6E0,2.9E1,1.6E1,1E0,3.5E1,4E0,2E0,1.6E1,1E0,3E0,9E0,1E0,3E0,1E0,9E0,3E0,1.5E1,7E0,3E1,1.6E1,2E0,3E0,2E0,3E0,1.12E2,2E1,1.06E2,3.8E1,4E0,2E0,1E0,5E0,4E0,3.9E1,2E0,1.3E1,1E1,3.4E1,1.08E2,5.9E1,1E0,7E0,5E0,7E0,5E0,1E0,1E0,2E0,1E0,1E0,2E0,4E0,2.2E1,7E0,1E1,6E0,2.2E1,1.3E1,3E0,1E0,1E0,1E0,1.1E1,5E0,2E0,7E0,7E0,2E0,2E0,1E0,5E0,1E1,5E0,2E0,2.3E1,7E0,1.4E1,2E0,1E0,2E0,1E0,1E0,1.06E2,6E0,8E0,1.2E1,1.05E2,1E0,2.6E1,1.2E1,2E0,2E0,1E0,1E0,4E0,1E0,1E0,3E0,1.3E1,2.6E1,1.1E1,2E0,5E0,5E0,5E0,2.9E1,7.4E1,3.4E1,4.2E1,1.7E1,4E0,3E0,3E0,2E0,1E0,6E0,3E0,2E0,1E0,1E0,1E0,1E0,3E0,1E0,1.2E1,1E1,2E0,5E0,8E0,2E0,7E0,1.5E1,2E0,1.1E1,1E0,2E0,7E0,4E0,1E0,4E0,6E0,1E0,4E0,3E0,1E0,1E0],"tree_param":{"num_deleted":"0","num_feature":"3","num_nodes":"291","size_leaf_vector":"1"}},{"base_weights":[5.768553E-4,-4.0817216E-2,3.432224E-1,7.0266485E-2,-6.4943165E-2,2.3343404E-1,6.208911E-1,-4.0440904E-3,2.3383063E-1,-8.695677E-2,4.8601188E-2,3.3899766E-1,1.1061544E-1,7.244734E-2,4.0514493E-1,-2.6420457E-2,9.3112744E-2,1.6067265E-1,3.1963748E-1,-9.3706384E-2,9.9542335E-2,3.913137E-2,4.048802E-2,3.507253E-1,-7.091737E-3,8.1719846E-2,3.3579804E-2,2.6009811E-2,5.5619087E-2,1.0175143E-1,-4.0000293E-2,1.741379E-1,-1.3428736E-2,1.972748E-1,-5.4472636E-2,3.3999854E-1,1.43013E-2,-1.0445346E-1,-2.2188144E-2,2.546691E-1,-2.7443042E-2,5.9261464E-2,-4.2180717E-2,5.5251565E-2,3.1397727E-1,1.5189311E-1,2.1495247E-2,1.2032473E-2,-2.3417473E-3,-1.8348455E-2,-3.041268E-2,-7.091737E-3,2.028627E-1,-1.2804854E-1,5.3986687E-2,2.0744604E-1,-2.3417473E-3,9.5443405E-2,-1.8623114E-2,3.5476983E-2,1.42961815E-2,-4.5403317E-2,-1.13752015E-1,-3.488401E-2,1.7268745E-2,8.2368374E-2,3.1674534E-1,-8.09021E-2,7.427187E-2,3.90787E-2,1.4342779E-1,2.6642336E-2,-9.8953836E-2,2.616793E-2,4.1380163E-2,-1.1841751E-2,1.7780831E-1,-7.842881E-2,6.99219E-2,2.490088E-2,-5.9612043E-2,1.3254374E-1,2.9278493E-1,-2.3417473E-3,-1.5511974E-2,2.3290316E-2,1.1908245E-2,2.876145E-2,1.7121147E-1,1.1908245E-2,2.408266E-3,-8.869976E-2,1.4030337E-1,-1.2969689E-1,-7.684206E-2,-6.2176052E-2,4.8828125E-2,9.376939E-3,2.408266E-3,3.685154E-2,1.2488016E-2,3.786087E-2,-1.8348465E-2,1.0454858E-2,-2.3417473E-3,-1.6232796E-2,9.203044E-2,3.2072306E-2,5.056631E-2,-1.3400023E-1,1.5599124E-2,-7.282257E-4,2.427969E-1,3.1828564E-3,-1.2889747E-1,8.621088E-2,-7.091737E-3,-3.702288E-3,1.3039621E-2,-7.494197E-2,7.040771E-2,1.6095154E-2,3.154691E-3,3.4265805E-2,7.1582794E-3,3.731537E-3,-2.3417473E-3,2.408266E-3,1.7804736E-1,-1.9712146E-2,-7.5010315E-2,4.471564E-3,1.623077E-1,-7.0433065E-2,-1.3722633E-1,1.6324634E-3,-1.10374235E-1,4.5494482E-2,-9.189919E-2,2.8275585E-2,-5.4914337E-2,6.405083E-3,-9.493828E-4,-1.4554757E-1,3.3377383E-2,1.040742E-1,-9.120068E-3,-9.247923E-2,8.498179E-2,-2.2623692E-2,-9.432132E-2,-1.1841751E-2,5.829847E-3,2.6226005E-1,2.408266E-3,2.3660182E-3,-1.7295195E-2,6.0460232E-2,1.2903476E-1,3.7364453E-2,-8.5372984E-2,-8.947385E-2,-1.2226629E-2,1.2488016E-2,1.19514465E-2,7.324135E-2,1.9412583E-2,-9.545395E-2,-2.8820064E-2,2.575078E-2,1.1254014E-1,-1.3638444E-1,-7.746847E-4,-1.4173403E-1,-6.0742967E-2,-2.859607E-2,1.5686028E-2,-1.3478023E-1,-3.9481934E-2,-7.6681554E-2,2.0081346E-1,-6.802172E-2,-1.9382972E-2,-1.1167761E-1,1.9044352E-1,-2.3417473E-3,2.19934E-3,-1.6985089E-2,-6.0554028E-2,5.433651E-2,-1.1120129E-1,8.455418E-2,2.4885584E-2,-2.3417473E-3,-1.1530138E-2,5.141463E-2,2.1032667E-2,1.0267449E-2,-1.33287E-1,9.376939E-3,2.9266155E-1,7.5408995E-2,4.4345856E-4,1.5599124E-2,2.408266E-3,-5.293735E-3,8.322322E-3,3.157091E-3,-1.0658938E-2,-1.0058979E-2,-4.8290254E-3,8.847631E-3,-6.8024504E-3,-2.3417473E-3,3.154691E-3,8.980418E-3,1.1776447E-3,-6.3982964E-3,-1.21901035E-2,1.8558253E-2,-8.407275E-3,1.7609596E-3,1.2220526E-2,-1.5681842E-2,2.48696E-3,1.5672326E-2,-1.0570875E-2,-1.5465018E-2,-1.09944865E-2,1.8634147E-3,-1.7680086E-2,-4.2655193E-3,9.4540715E-3,-1.3564314E-3,-1.457607E-2,1.0066758E-2,-6.953946E-3,-1.9156743E-2,-6.4583623E-4,2.844882E-3,2.2959663E-2,-3.2283121E-3,-1.5280892E-2,-1.1171818E-3,-1.6053403E-2,-2.3417473E-3,3.0908275E-2,7.147169E-3,-1.283865E-2,1.678208E-2,3.2237654E-3,6.643033E-3,-1.9255526E-2,1.0631117E-2,-1.1064029E-2,8.456286E-3,1.3538361E-4,-1.1749077E-2,1.3460319E-2,-1.662665E-2,-3.4006238E-3,3.140181E-2,7.1582794E-3,9.376631E-3,3.3610107E-3,2.408266E-3,-2.3417473E-3],"categories":[],"categories_nodes":[],"categories_segments":[],"categories_sizes":[],"default_left":[0,0,0,0,0,0,0,0,0,0,0,0,0,0,0,0,0,0,0,0,0,0,0,0,0,0,0,0,0,0,0,0,0,0,0,0,0,0,0,0,0,0,0,0,0,0,0,0,0,0,0,0,0,0,0,0,0,0,0,0,0,0,0,0,0,0,0,0,0,0,0,0,0,0,0,0,0,0,0,0,0,0,0,0,0,0,0,0,0,0,0,0,0,0,0,0,0,0,0,0,0,0,0,0,0,0,0,0,0,0,0,0,0,0,0,0,0,0,0,0,0,0,0,0,0,0,0,0,0,0,0,0,0,0,0,0,0,0,0,0,0,0,0,0,0,0,0,0,0,0,0,0,0,0,0,0,0,0,0,0,0,0,0,0,0,0,0,0,0,0,0,0,0,0,0,0,0,0,0,0,0,0,0,0,0,0,0,0,0,0,0,0,0,0,0,0,0,0,0,0,0,0,0,0,0,0,0,0,0,0,0,0,0,0,0,0,0,0,0,0,0,0,0,0,0,0,0,0,0,0,0,0,0,0,0,0,0,0,0,0,0,0,0,0,0,0,0,0,0,0,0,0,0,0,0,0,0,0,0,0,0,0,0,0,0,0,0],"id":1,"left_children":[1,3,5,7,9,11,13,15,17,19,21,23,25,-1,27,29,31,33,35,37,39,41,-1,43,-1,45,-1,-1,-1,47,49,51,53,55,57,59,-1,61,63,65,67,69,71,-1,73,75,77,-1,-1,-1,79,-1,81,83,85,87,-1,89,-1,-1,-1,91,93,95,-1,97,99,101,103,105,107,-1,109,-1,-1,-1,111,113,115,117,119,121,123,-1,-1,125,-1,-1,127,-1,-1,129,131,133,135,137,139,-1,-1,-1,-1,141,-1,-1,-1,143,145,-1,147,149,-1,151,153,-1,155,157,-1,159,-1,161,163,-1,-1,-1,-1,-1,-1,-1,165,-1,167,-1,169,171,173,175,177,179,181,-1,183,-1,185,187,189,191,-1,193,195,-1,197,-1,-1,199,-1,-1,-1,201,203,205,207,209,211,-1,213,215,-1,217,219,-1,221,223,225,227,229,231,-1,233,235,237,239,241,-1,243,245,-1,-1,-1,247,249,251,253,-1,-1,-1,255,-1,257,259,-1,261,263,265,-1,-1,-1,-1,-1,-1,-1,-1,-1,-1,-1,-1,-1,-1,-1,-1,-1,-1,-1,-1,-1,-1,-1,-1,-1,-1,-1,-1,-1,-1,-1,-1,-1,-1,-1,-1,-1,-1,-1,-1,-1,-1,-1,-1,-1,-1,-1,-1,-1,-1,-1,-1,-1,-1,-1,-1,-1,-1,-1,-1,-1,-1,-1,-1],"loss_changes":[1.4211687E1,2.4004831E0,3.147421E0,1.9456726E0,1.8413737E0,9.867506E-1,3.7690735E-1,2.4377595E-1,2.6251602E-1,7.847476E-1,3.8902408E-1,2.2677994E-1,2.1981645E-1,0E0,1.18240595E-1,1.6246048E-1,1.8362182E-1,2.3911464E-1,3.0493736E-2,4.5500612E-1,4.4036317E-1,1.9564442E-1,0E0,1.3055372E-1,0E0,1.446505E-1,0E0,0E0,0E0,2.3740895E-2,1.086005E-1,9.885642E-2,8.418433E-2,6.097567E-2,1.1653809E-1,4.5804977E-3,0E0,2.787099E-1,2.01479E-1,8.0868006E-2,7.6697335E-2,1.5577236E-1,4.4685358E-1,0E0,8.48794E-2,1.3313812E-1,1.0226366E-1,0E0,0E0,0E0,1.2907892E-1,0E0,3.0748785E-2,7.697448E-3,1.1213958E-2,2.0473957E-2,0E0,2.1928772E-3,0E0,0E0,0E0,5.913565E-1,2.525158E-1,1.7438656E-1,0E0,3.9984845E-4,2.35098E-2,1.1659396E-1,1.723682E-2,2.2994345E-1,2.801325E-1,0E0,2.0853586E-1,0E0,0E0,0E0,1.7421931E-1,4.3054417E-2,3.823162E-2,8.497277E-2,1.0892254E-1,1.7875269E-2,1.9599766E-2,0E0,0E0,4.8043067E-3,0E0,0E0,1.4821529E-2,0E0,0E0,7.278359E-2,2.218914E-2,1.2866402E-1,3.606848E-1,1.8659835E-1,4.766239E-1,0E0,0E0,0E0,0E0,5.1430035E-3,0E0,0E0,0E0,2.5505581E-1,9.776327E-2,0E0,7.1857795E-2,4.8198193E-2,0E0,4.16376E-2,4.05097E-2,0E0,3.7696302E-2,6.5341815E-3,0E0,8.033075E-2,0E0,4.1740507E-2,1.7613037E-2,0E0,0E0,0E0,0E0,0E0,0E0,0E0,1.6114116E-2,0E0,4.824102E-2,0E0,2.3136675E-2,1.6987479E-1,8.585644E-2,2.0156258E-1,1.6077757E-1,2.6209E-1,9.633824E-2,0E0,2.1625069E-1,0E0,2.061471E-3,1.2436733E-2,9.391932E-2,8.635157E-2,0E0,2.0283442E-3,3.5468318E-2,0E0,6.249909E-2,0E0,0E0,2.3780942E-2,0E0,0E0,0E0,8.93832E-3,7.559873E-3,7.0663676E-2,2.3214161E-2,1.2538701E-2,6.220865E-2,0E0,3.5110307E-3,3.0145533E-3,0E0,2.2996098E-2,2.2883616E-1,0E0,6.1056465E-3,6.650621E-2,3.3057812E-1,8.893013E-2,1.5990433E-1,6.6355675E-2,0E0,9.252441E-2,1.165266E-1,6.330401E-2,2.3235455E-2,1.1021355E-1,0E0,5.713077E-2,8.335484E-2,0E0,0E0,0E0,4.4998527E-2,5.979456E-2,7.059568E-2,1.6040182E-1,0E0,0E0,0E0,1.6479779E-2,0E0,9.523919E-2,3.0362427E-2,0E0,1.5293598E-2,2.9870272E-3,2.2561152E-3,0E0,0E0,0E0,0E0,0E0,0E0,0E0,0E0,0E0,0E0,0E0,0E0,0E0,0E0,0E0,0E0,0E0,0E0,0E0,0E0,0E0,0E0,0E0,0E0,0E0,0E0,0E0,0E0,0E0,0E0,0E0,0E0,0E0,0E0,0E0,0E0,0E0,0E0,0E0,0E0,0E0,0E0,0E0,0E0,0E0,0E0,0E0,0E0,0E0,0E0,0E0,0E0,0E0,0E0,0E0,0E0,0E0,0E0,0E0,0E0,0E0,0E0,0E0,0E0],"parents":[2147483647,0,0,1,1,2,2,3,3,4,4,5,5,6,6,7,7,8,8,9,9,10,10,11,11,12,12,14,14,15,15,16,16,17,17,18,18,19,19,20,20,21,21,23,23,25,25,29,29,30,30,31,31,32,32,33,33,34,34,35,35,37,37,38,38,39,39,40,40,41,41,42,42,44,44,45,45,46,46,50,50,52,52,53,53,54,54,55,55,57,57,61,61,62,62,63,63,65,65,66,66,67,67,68,68,69,69,70,70,72,72,76,76,77,77,78,78,79,79,80,80,81,81,82,82,85,85,88,88,91,91,92,92,93,93,94,94,95,95,96,96,101,101,105,105,106,106,108,108,109,109,111,111,112,112,114,114,115,115,117,117,119,119,120,120,128,128,130,130,132,132,133,133,134,134,135,135,136,136,137,137,138,138,140,140,142,142,143,143,144,144,145,145,147,147,148,148,150,150,153,153,157,157,158,158,159,159,160,160,161,161,162,162,164,164,165,165,167,167,168,168,170,170,171,171,172,172,173,173,174,174,175,175,177,177,178,178,179,179,180,180,181,181,183,183,184,184,188,188,189,189,190,190,191,191,195,195,197,197,198,198,200,200,201,201,202,202],"right_children":[2,4,6,8,10,12,14,16,18,20,22,24,26,-1,28,30,32,34,36,38,40,42,-1,44,-1,46,-1,-1,-1,48,50,52,54,56,58,60,-1,62,64,66,68,70,72,-1,74,76,78,-1,-1,-1,80,-1,82,84,86,88,-1,90,-1,-1,-1,92,94,96,-1,98,100,102,104,106,108,-1,110,-1,-1,-1,112,114,116,118,120,122,124,-1,-1,126,-1,-1,128,-1,-1,130,132,134,136,138,140,-1,-1,-1,-1,142,-1,-1,-1,144,146,-1,148,150,-1,152,154,-1,156,158,-1,160,-1,162,164,-1,-1,-1,-1,-1,-1,-1,166,-1,168,-1,170,172,174,176,178,180,182,-1,184,-1,186,188,190,192,-1,194,196,-1,198,-1,-1,200,-1,-1,-1,202,204,206,208,210,212,-1,214,216,-1,218,220,-1,222,224,226,228,230,232,-1,234,236,238,240,242,-1,244,246,-1,-1,-1,248,250,252,254,-1,-1,-1,256,-1,258,260,-1,262,264,266,-1,-1,-1,-1,-1,-1,-1,-1,-1,-1,-1,-1,-1,-1,-1,-1,-1,-1,-1,-1,-1,-1,-1,-1,-1,-1,-1,-1,-1,-1,-1,-1,-1,-1,-1,-1,-1,-1,-1,-1,-1,-1,-1,-1,-1,-1,-1,-1,-1,-1,-1,-1,-1,-1,-1,-1,-1,-1,-1,-1,-1,-1,-1,-1],"split_conditions":[6.839E5,1.964E3,1.129952E6,1.01053E5,1.47E2,2.003E3,2.004E3,1.3E2,1.72083E5,6.16228E5,2.02E3,1.79E2,2.017E3,7.244734E-2,1.485555E6,1.93E3,1.44E2,1.961E3,2.09E2,2.016E3,2.007E3,3.57026E5,4.048802E-2,1.976E3,-7.091737E-3,1.17E2,3.3579804E-2,2.6009811E-2,5.5619087E-2,8.177E4,2.6518E4,2.8223E4,5.2397E4,1.54E2,1.11478E5,1.961E3,1.43013E-2,1.977E3,1.39E2,1.16E2,2.013E3,2.18957E5,1.985E3,5.5251565E-2,9.49565E5,9.2E1,7.57904E5,1.2032473E-2,-2.3417473E-3,-1.8348455E-2,3.4677E4,-7.091737E-3,1.962E3,1.45E2,1.961E3,1.932E3,-2.3417473E-3,1.962E3,-1.8623114E-2,3.5476983E-2,1.42961815E-2,1.81285E5,1.25E2,3.3432E5,1.7268745E-2,1.997E3,2.002E3,1.19E2,6.52719E5,2E3,1.989E3,2.6642336E-2,1.69E2,2.616793E-2,4.1380163E-2,-1.1841751E-2,7.17585E5,7.17585E5,1.5E2,1.11E2,9.309E4,1.959E3,4.2285E4,-2.3417473E-3,-1.5511974E-2,1.75E2,1.1908245E-2,2.876145E-2,8.1E1,1.1908245E-2,2.408266E-3,1.966E3,2.0315E5,9E1,6.5659E4,4.3542E4,4.34143E5,9.376939E-3,2.408266E-3,3.685154E-2,1.2488016E-2,1.12E2,-1.8348465E-2,1.0454858E-2,-2.3417473E-3,1.6E2,1.69229E5,3.2072306E-2,1.48E2,2.006E3,1.5599124E-2,2.01E3,2.015E3,3.1828564E-3,2.006E3,1.020727E6,-7.091737E-3,1E2,1.3039621E-2,1.957E3,9.7222E4,1.6095154E-2,3.154691E-3,3.4265805E-2,7.1582794E-3,3.731537E-3,-2.3417473E-3,2.408266E-3,1.942E3,-1.9712146E-2,1.21E2,4.471564E-3,1.966E3,8.6E1,5.00875E5,1.42E2,3.71379E5,3.3935E4,1.33E2,2.8275585E-2,2.019E3,6.405083E-3,2.01E3,1.58E2,1.996E3,1.39558E5,-9.120068E-3,2.002E3,3.39757E5,-2.2623692E-2,2.008E3,-1.1841751E-2,5.829847E-3,2.004E3,2.408266E-3,2.3660182E-3,-1.7295195E-2,8.87429E5,2.011E3,9.1E1,1.94E3,7.7071E4,1.959E3,1.2488016E-2,8.6E1,1.941E3,1.9412583E-2,5.2848E4,1.23E2,2.575078E-2,2.37696E5,2.40714E5,1.998E3,1.15E2,1.16E2,6.3122E4,1.5686028E-2,1.986E3,1.996E3,2.018E3,1.14E2,1.98089E5,-1.9382972E-2,2.017E3,1.31E2,-2.3417473E-3,2.19934E-3,-1.6985089E-2,3.1728E4,1.63E2,1.7E2,1.15576E5,2.4885584E-2,-2.3417473E-3,-1.1530138E-2,1.57E2,2.1032667E-2,4.66134E5,6.00004E5,9.376939E-3,1.13E2,1.31E2,2.004E3,1.5599124E-2,2.408266E-3,-5.293735E-3,8.322322E-3,3.157091E-3,-1.0658938E-2,-1.0058979E-2,-4.8290254E-3,8.847631E-3,-6.8024504E-3,-2.3417473E-3,3.154691E-3,8.980418E-3,1.1776447E-3,-6.3982964E-3,-1.21901035E-2,1.8558253E-2,-8.407275E-3,1.7609596E-3,1.2220526E-2,-1.5681842E-2,2.48696E-3,1.5672326E-2,-1.0570875E-2,-1.5465018E-2,-1.09944865E-2,1.8634147E-3,-1.7680086E-2,-4.2655193E-3,9.4540715E-3,-1.3564314E-3,-1.457607E-2,1.0066758E-2,-6.953946E-3,-1.9156743E-2,-6.4583623E-4,2.844882E-3,2.2959663E-2,-3.2283121E-3,-1.5280892E-2,-1.1171818E-3,-1.6053403E-2,-2.3417473E-3,3.0908275E-2,7.147169E-3,-1.283865E-2,1.678208E-2,3.2237654E-3,6.643033E-3,-1.9255526E-2,1.0631117E-2,-1.1064029E-2,8.456286E-3,1.3538361E-4,-1.1749077E-2,1.3460319E-2,-1.662665E-2,-3.4006238E-3,3.140181E-2,7.1582794E-3,9.376631E-3,3.3610107E-3,2.408266E-3,-2.3417473E-3],"split_indices":[2,0,2,2,1,0,0,1,2,2,0,1,0,0,2,0,1,0,1,0,0,2,0,0,0,1,0,0,0,2,2,2,2,1,2,0,0,0,1,1,0,2,0,0,2,1,2,0,0,0,2,0,0,1,0,0,0,0,0,0,0,2,1,2,0,0,0,1,2,0,0,0,1,0,0,0,2,2,1,1,2,0,2,0,0,1,0,0,1,0,0,0,2,1,2,2,2,0,0,0,0,1,0,0,0,1,2,0,1,0,0,0,0,0,0,2,0,1,0,0,2,0,0,0,0,0,0,0,0,0,1,0,0,1,2,1,2,2,1,0,0,0,0,1,0,2,0,0,2,0,0,0,0,0,0,0,0,2,0,1,0,2,0,0,1,0,0,2,1,0,2,2,0,1,1,2,0,0,0,0,1,2,0,0,1,0,0,0,2,1,1,2,0,0,0,1,0,2,2,0,1,1,0,0,0,0,0,0,0,0,0,0,0,0,0,0,0,0,0,0,0,0,0,0,0,0,0,0,0,0,0,0,0,0,0,0,0,0,0,0,0,0,0,0,0,0,0,0,0,0,0,0,0,0,0,0,0,0,0,0,0,0,0,0,0,0,0],"split_type":[0,0,0,0,0,0,0,0,0,0,0,0,0,0,0,0,0,0,0,0,0,0,0,0,0,0,0,0,0,0,0,0,0,0,0,0,0,0,0,0,0,0,0,0,0,0,0,0,0,0,0,0,0,0,0,0,0,0,0,0,0,0,0,0,0,0,0,0,0,0,0,0,0,0,0,0,0,0,0,0,0,0,0,0,0,0,0,0,0,0,0,0,0,0,0,0,0,0,0,0,0,0,0,0,0,0,0,0,0,0,0,0,0,0,0,0,0,0,0,0,0,0,0,0,0,0,0,0,0,0,0,0,0,0,0,0,0,0,0,0,0,0,0,0,0,0,0,0,0,0,0,0,0,0,0,0,0,0,0,0,0,0,0,0,0,0,0,0,0,0,0,0,0,0,0,0,0,0,0,0,0,0,0,0,0,0,0,0,0,0,0,0,0,0,0,0,0,0,0,0,0,0,0,0,0,0,0,0,0,0,0,0,0,0,0,0,0,0,0,0,0,0,0,0,0,0,0,0,0,0,0,0,0,0,0,0,0,0,0,0,0,0,0,0,0,0,0,0,0,0,0,0,0,0,0,0,0,0,0,0,0,0,0,0,0,0,0],"sum_hessian":[1E3,8.93E2,1.07E2,1.59E2,7.34E2,7.8E1,2.9E1,1.1E2,4.9E1,6.15E2,1.19E2,4.1E1,3.7E1,1.8E1,1.1E1,9E1,2E1,2.8E1,2.1E1,5.94E2,2.1E1,1.17E2,2E0,4E1,1E0,3.4E1,3E0,7E0,4E0,8E0,8.2E1,1.1E1,9E0,2.4E1,4E0,1.8E1,3E0,5.16E2,7.8E1,9E0,1.2E1,9.4E1,2.3E1,4E0,3.6E1,1.5E1,1.9E1,7E0,1E0,4E0,7.8E1,1E0,1E1,3E0,6E0,2.3E1,1E0,2E0,2E0,1.6E1,2E0,7.1E1,4.45E2,7.4E1,4E0,3E0,6E0,8E0,4E0,7.7E1,1.7E1,3E0,2E1,2.6E1,1E1,1E0,1.4E1,6E0,1.3E1,2.7E1,5.1E1,7E0,3E0,1E0,2E0,5E0,1E0,5E0,1.8E1,1E0,1E0,5.8E1,1.3E1,3.09E2,1.36E2,5.6E1,1.8E1,2E0,1E0,4E0,2E0,4E0,4E0,3E0,1E0,3.8E1,3.9E1,5E0,1.2E1,1.8E1,2E0,4E0,1E1,2E0,4E0,1.2E1,1E0,2.2E1,5E0,4.6E1,5E0,5E0,2E0,2E0,1E0,4E0,1E0,1E0,1.7E1,5E0,5.3E1,3E0,1E1,3.6E1,2.73E2,4.1E1,9.5E1,1.2E1,4.4E1,5E0,1.3E1,2E0,2E0,1E1,2.8E1,3.7E1,2E0,2E0,1E1,4E0,1.4E1,1E0,3E0,9E0,1E0,1E0,3E0,9E0,3E0,1.5E1,7E0,3.7E1,9E0,2E0,3E0,3E0,1.4E1,3.6E1,1.7E1,2E0,8E0,1.8E1,1.8E1,2.57E2,1.6E1,3.5E1,6E0,7E1,2.5E1,7E0,5E0,3.7E1,7E0,1.1E1,2E0,1E0,1E0,7E0,3E0,2.5E1,3E0,3.4E1,3E0,1E0,1E0,9E0,1E0,4E0,1E1,2E0,7E0,7E0,2E0,2E0,1E0,5E0,1E1,1E0,6E0,2.8E1,9E0,3E0,6E0,1E0,2E0,2E0,1E0,1.8E1,1.8E1,3E0,1.4E1,1E0,7E0,1.6E1,2E0,7E0,1.1E1,1.8E2,7.7E1,1E1,6E0,3.2E1,3E0,6E0,6.4E1,4E0,2.1E1,2E0,5E0,1E0,4E0,2.7E1,1E1,4E0,7E0,1E0,1E0,1E0,2E0,3E0,2.2E1,1E0,2E0,3.1E1,3E0,5E0,4E0,2E0,2E0,7E0,3E0,6E0,1E0,4E0,3E0,1E0,1E0],"tree_param":{"num_deleted":"0","num_feature":"3","num_nodes":"267","size_leaf_vector":"1"}},{"base_weights":[1.179416E-3,-3.638529E-2,3.1212077E-1,6.4287044E-2,-5.8250852E-2,2.1254323E-1,5.639376E-1,-3.1947272E-3,2.1281084E-1,-7.8170404E-2,4.4488277E-2,3.0785286E-1,1.0160775E-1,6.1602616E-1,2.5291228E-1,-2.3774404E-2,8.6136E-2,1.4647064E-1,2.9058608E-1,-8.433792E-2,9.2185974E-2,3.5634987E-2,3.7788834E-2,3.186479E-1,-6.737161E-3,7.4818335E-2,3.1061316E-2,4.6641153E-1,7.392412E-2,1.1077643E-3,2.9906368E-2,9.265301E-2,-3.6112625E-2,1.6118924E-1,-1.2541485E-2,1.7988327E-1,-4.9886703E-2,3.086182E-2,1.3228702E-2,-9.084362E-2,1.3412588E-2,2.3531456E-1,-2.5004167E-2,5.3839248E-2,-3.7908334E-2,5.0831474E-2,2.8440514E-1,1.3873461E-1,1.9944405E-2,5.230468E-2,2.598587E-1,1.0979629E-2,-2.22466E-3,-1.688056E-2,-2.7257213E-2,-6.737161E-3,1.8809219E-1,-1.1970711E-1,5.0487656E-2,1.8923229E-1,-2.22466E-3,9.067138E-2,-1.738159E-2,-1.1148643E-1,-6.841171E-2,-2.4673846E-2,1.5932095E-1,7.7077866E-2,2.9211918E-1,-7.4154586E-2,6.846742E-2,7.364285E-3,8.469336E-2,2.464416E-2,-9.026507E-2,2.364806E-2,3.7618306E-2,-1.1249661E-2,1.6298313E-1,-7.226392E-2,6.462397E-2,7.4911597E-3,2.8736759E-2,2.2716744E-2,-5.364209E-2,1.2169558E-1,2.7386236E-1,-2.22466E-3,-1.4477842E-2,2.119279E-2,1.1312842E-2,2.6364645E-2,1.5577349E-1,1.1312842E-2,2.2878647E-3,-1.1602549E-1,-6.193528E-3,-7.505942E-3,-8.50392E-2,3.4935903E-2,-1.2196728E-1,9.818717E-2,2.936287E-2,8.751806E-3,2.2878647E-3,3.390339E-2,1.165549E-2,3.5327435E-2,-1.688057E-2,9.670759E-3,-2.22466E-3,-1.843748E-2,2.8464066E-2,1.6811803E-1,4.5034923E-2,-1.2275483E-1,1.4559174E-2,-1.8577576E-3,2.2309417E-1,2.9706636E-3,-1.18993476E-1,7.995991E-2,-6.737161E-3,-3.5265426E-3,1.1952988E-2,-6.772109E-2,6.558379E-2,1.475389E-2,2.9443742E-3,3.1981405E-2,6.8003656E-3,3.432999E-3,-2.22466E-3,2.2878647E-3,1.618855E-1,-9.514467E-2,-1.3437808E-1,1.03915215E-1,-1.1541748E-1,-4.481046E-2,9.55506E-2,-2.2264957E-2,-1.0478592E-1,1.4168209E-1,-3.344143E-2,-1.4636374E-1,7.319689E-3,2.2209167E-2,-5.026412E-2,-9.1091794E-4,5.9789973E-3,-6.1942577E-2,4.8610147E-2,1.8077028E-1,-2.3485185E-3,2.6363095E-2,1.7046508E-1,-2.0813808E-2,-8.6110085E-2,-1.1249661E-2,5.392611E-3,2.4082784E-1,2.2878647E-3,2.2477151E-3,-1.5998041E-2,5.569463E-2,1.20633125E-1,3.381738E-2,-7.777357E-2,-8.091835E-2,-1.0799408E-2,1.165549E-2,1.0959506E-2,6.845677E-2,1.7600747E-2,-1.1580175E-1,2.0540806E-2,-1.1707897E-1,-1.7839415E-1,2.1907425E-2,1.403675E-2,-2.4349212E-3,-1.2653732E-1,1.0830297E-1,-6.2829375E-2,-5.445687E-2,1.2087001E-1,-1.3108817E-1,6.766478E-3,-1.3215643E-1,-5.65096E-2,-7.059455E-3,1.8209226E-1,4.8369724E-2,-9.061962E-2,-1.980462E-1,-7.028731E-2,-8.8425E-2,3.2109262E-3,2.0880222E-3,-2.22466E-3,8.835602E-2,-1.3973323E-1,9.393257E-3,1.5528244E-1,1.2837876E-1,3.1894803E-2,5.8873944E-2,-2.8930664E-2,2.2482395E-1,-2.3485185E-3,9.583091E-3,-1.2177879E-1,8.751806E-3,2.6821554E-1,6.946027E-2,4.213651E-4,1.4559174E-2,2.2878647E-3,-4.8525813E-3,7.565754E-3,-1.0746884E-2,7.541498E-4,-9.087777E-3,-4.394422E-3,4.3096407E-3,-1.0241724E-2,-2.22466E-3,2.9443742E-3,8.381733E-3,1.1187553E-3,-1.30058E-2,-3.8425673E-3,1.0015258E-2,-7.7047395E-3,-1.1968E-2,7.931518E-3,-2.4450252E-2,-1.3593604E-2,9.058619E-3,-6.7191604E-3,-1.421051E-2,-2.4349212E-3,2.079196E-2,3.141892E-3,-1.3080117E-2,-2.525773E-3,-6.584263E-3,-1.5842676E-3,1.3433985E-2,2.6700655E-3,-2.1183094E-2,-2.8497379E-3,9.351582E-3,-1.6395597E-3,-1.685332E-2,-4.3405397E-3,-1.7259121E-3,-9.787186E-3,8.461321E-3,2.3404825E-2,-5.771506E-3,1.7369287E-2,1.2069655E-2,-1.3805001E-2,-2.6063682E-3,-2.2722999E-2,-9.109044E-3,-1.9120694E-3,-1.103909E-2,-2.22466E-3,-7.623291E-3,2.0876694E-2,-1.6354322E-2,-2.22466E-3,6.2669055E-3,-5.4422985E-3,2.590545E-2,7.7516E-3,1.7756589E-2,8.132304E-3,-4.029948E-3,1.04781035E-2,-1.4977582E-2,3.6915144E-4,5.554676E-3,2.6273409E-2,-1.0965792E-2,1.2562974E-2,-1.0112763E-3,-1.4546983E-2,2.8710244E-2,6.8003656E-3,8.6265085E-3,3.1089187E-3,2.2878647E-3,-2.22466E-3],"categories":[],"categories_nodes":[],"categories_segments":[],"categories_sizes":[],"default_left":[0,0,0,0,0,0,0,0,0,0,0,0,0,0,0,0,0,0,0,0,0,0,0,0,0,0,0,0,0,0,0,0,0,0,0,0,0,0,0,0,0,0,0,0,0,0,0,0,0,0,0,0,0,0,0,0,0,0,0,0,0,0,0,0,0,0,0,0,0,0,0,0,0,0,0,0,0,0,0,0,0,0,0,0,0,0,0,0,0,0,0,0,0,0,0,0,0,0,0,0,0,0,0,0,0,0,0,0,0,0,0,0,0,0,0,0,0,0,0,0,0,0,0,0,0,0,0,0,0,0,0,0,0,0,0,0,0,0,0,0,0,0,0,0,0,0,0,0,0,0,0,0,0,0,0,0,0,0,0,0,0,0,0,0,0,0,0,0,0,0,0,0,0,0,0,0,0,0,0,0,0,0,0,0,0,0,0,0,0,0,0,0,0,0,0,0,0,0,0,0,0,0,0,0,0,0,0,0,0,0,0,0,0,0,0,0,0,0,0,0,0,0,0,0,0,0,0,0,0,0,0,0,0,0,0,0,0,0,0,0,0,0,0,0,0,0,0,0,0,0,0,0,0,0,0,0,0,0,0,0,0,0,0,0,0,0,0,0,0,0,0,0,0,0,0,0,0,0,0,0,0,0,0,0,0,0,0,0,0,0,0,0,0,0,0,0,0],"id":2,"left_children":[1,3,5,7,9,11,13,15,17,19,21,23,25,27,29,31,33,35,37,39,41,43,-1,45,-1,47,-1,49,-1,-1,-1,51,53,55,57,59,61,-1,-1,63,65,67,69,71,73,-1,75,77,79,-1,81,-1,-1,-1,83,-1,85,87,89,91,-1,93,-1,95,97,99,101,103,105,107,109,111,113,-1,115,-1,-1,-1,117,119,121,-1,-1,123,125,127,129,-1,-1,131,-1,-1,133,-1,-1,135,137,139,141,143,145,147,-1,-1,-1,-1,-1,149,-1,-1,-1,-1,151,153,155,157,-1,159,161,-1,163,165,-1,167,-1,169,171,-1,-1,-1,-1,-1,-1,-1,173,175,177,179,181,183,185,187,189,191,193,195,-1,-1,197,199,-1,201,203,205,-1,207,209,-1,211,-1,-1,213,-1,-1,-1,215,217,219,221,223,225,-1,227,229,-1,231,233,235,237,-1,239,-1,241,243,245,247,249,251,253,255,257,-1,259,261,263,265,267,269,-1,-1,-1,271,273,275,277,279,-1,281,283,285,-1,287,289,-1,291,293,295,-1,-1,-1,-1,-1,-1,-1,-1,-1,-1,-1,-1,-1,-1,-1,-1,-1,-1,-1,-1,-1,-1,-1,-1,-1,-1,-1,-1,-1,-1,-1,-1,-1,-1,-1,-1,-1,-1,-1,-1,-1,-1,-1,-1,-1,-1,-1,-1,-1,-1,-1,-1,-1,-1,-1,-1,-1,-1,-1,-1,-1,-1,-1,-1,-1,-1,-1,-1,-1,-1,-1,-1,-1,-1,-1,-1,-1,-1,-1,-1],"loss_changes":[1.1703457E1,1.9716687E0,2.588272E0,1.6043037E0,1.5076683E0,8.040042E-1,3.30225E-1,2.0610996E-1,2.1541905E-1,6.549907E-1,3.4073657E-1,1.9159174E-1,1.8952745E-1,1.1607838E-1,6.365311E-2,1.3406809E-1,1.575489E-1,1.9923747E-1,2.197218E-2,3.7959957E-1,3.748955E-1,1.6001956E-1,0E0,1.2171602E-1,0E0,1.1998981E-1,0E0,2.7856112E-2,0E0,0E0,0E0,2.0170398E-2,9.292805E-2,8.645964E-2,7.3589295E-2,5.1452696E-2,1.0285637E-1,0E0,0E0,2.5075912E-1,2.1510197E-1,6.736982E-2,6.480136E-2,1.3560092E-1,3.7954828E-1,0E0,7.378149E-2,1.1580679E-1,8.706653E-2,0E0,3.9112866E-3,0E0,0E0,0E0,1.0538456E-1,0E0,2.9315472E-2,6.5530203E-3,1.04478635E-2,1.8686235E-2,0E0,1.9790474E-3,0E0,1.3740373E-1,2.727934E-1,1.840498E-1,3.685534E-2,2.611056E-4,1.813984E-2,9.922683E-2,1.4960304E-2,1.6302852E-1,1.810129E-1,0E0,1.7879361E-1,0E0,0E0,0E0,1.4904585E-1,3.6890168E-2,3.372689E-2,0E0,0E0,7.156099E-2,9.1727644E-2,1.4728665E-2,1.6089708E-2,0E0,0E0,4.187756E-3,0E0,0E0,1.1729121E-2,0E0,0E0,9.336591E-2,1.6833828E-1,2.3110564E-1,2.6045907E-1,1.5071845E-1,6.7849144E-2,1.3991973E-1,0E0,0E0,0E0,0E0,0E0,4.4868747E-3,0E0,0E0,0E0,0E0,6.8579264E-2,4.7881246E-2,8.918643E-2,4.1525304E-2,0E0,3.6925822E-2,3.354627E-2,0E0,3.2588147E-2,6.1116964E-3,0E0,6.640163E-2,0E0,3.4432992E-2,1.5428176E-2,0E0,0E0,0E0,0E0,0E0,0E0,0E0,1.1700243E-2,3.20212E-1,8.952236E-2,6.9377124E-2,4.007563E-3,1.281979E-1,6.735182E-2,1.6517028E-1,2.0526886E-1,8.147979E-2,6.519483E-2,2.9329866E-2,0E0,0E0,1.5413023E-2,1.8593004E-3,0E0,9.418904E-2,1.2404206E-1,8.212268E-2,0E0,6.641856E-2,5.7994604E-2,0E0,5.2365802E-2,0E0,0E0,1.8514335E-2,0E0,0E0,0E0,7.5794533E-3,6.4283237E-3,5.8795385E-2,2.1078113E-2,9.999618E-3,5.379198E-2,0E0,3.1101808E-3,2.5810376E-3,0E0,1.19651794E-1,1.7086904E-1,6.415093E-2,7.622993E-2,0E0,3.717655E-2,0E0,6.084904E-3,3.1762037E-2,9.8848745E-2,2.758326E-4,1.4171287E-2,8.508147E-2,8.5923634E-2,3.2198918E-1,9.572011E-2,0E0,1.5648782E-2,8.979396E-2,9.684463E-2,2.4192154E-2,4.644843E-3,1.9051842E-3,0E0,0E0,0E0,7.536983E-2,1.0348506E-2,8.160745E-2,4.4478983E-2,1.796329E-2,0E0,1.0893617E-1,5.574415E-2,1.1075273E-2,0E0,8.29639E-2,2.7629212E-2,0E0,1.0726988E-2,2.47664E-3,2.0361547E-3,0E0,0E0,0E0,0E0,0E0,0E0,0E0,0E0,0E0,0E0,0E0,0E0,0E0,0E0,0E0,0E0,0E0,0E0,0E0,0E0,0E0,0E0,0E0,0E0,0E0,0E0,0E0,0E0,0E0,0E0,0E0,0E0,0E0,0E0,0E0,0E0,0E0,0E0,0E0,0E0,0E0,0E0,0E0,0E0,0E0,0E0,0E0,0E0,0E0,0E0,0E0,0E0,0E0,0E0,0E0,0E0,0E0,0E0,0E0,0E0,0E0,0E0,0E0,0E0,0E0,0E0,0E0,0E0,0E0,0E0,0E0,0E0,0E0,0E0,0E0,0E0,0E0,0E0,0E0,0E0],"parents":[2147483647,0,0,1,1,2,2,3,3,4,4,5,5,6,6,7,7,8,8,9,9,10,10,11,11,12,12,13,13,14,14,15,15,16,16,17,17,18,18,19,19,20,20,21,21,23,23,25,25,27,27,31,31,32,32,33,33,34,34,35,35,36,36,39,39,40,40,41,41,42,42,43,43,44,44,46,46,47,47,48,48,50,50,54,54,56,56,57,57,58,58,59,59,61,61,63,63,64,64,65,65,66,66,67,67,68,68,69,69,70,70,71,71,72,72,74,74,78,78,79,79,80,80,83,83,84,84,85,85,86,86,89,89,92,92,95,95,96,96,97,97,98,98,99,99,100,100,101,101,107,107,112,112,113,113,114,114,115,115,117,117,118,118,120,120,121,121,123,123,125,125,126,126,134,134,135,135,136,136,137,137,138,138,139,139,140,140,141,141,142,142,143,143,144,144,145,145,148,148,149,149,151,151,152,152,153,153,155,155,156,156,158,158,161,161,165,165,166,166,167,167,168,168,169,169,170,170,172,172,173,173,175,175,176,176,177,177,178,178,180,180,182,182,183,183,184,184,185,185,186,186,187,187,188,188,189,189,190,190,192,192,193,193,194,194,195,195,196,196,197,197,201,201,202,202,203,203,204,204,205,205,207,207,208,208,209,209,211,211,212,212,214,214,215,215,216,216],"right_children":[2,4,6,8,10,12,14,16,18,20,22,24,26,28,30,32,34,36,38,40,42,44,-1,46,-1,48,-1,50,-1,-1,-1,52,54,56,58,60,62,-1,-1,64,66,68,70,72,74,-1,76,78,80,-1,82,-1,-1,-1,84,-1,86,88,90,92,-1,94,-1,96,98,100,102,104,106,108,110,112,114,-1,116,-1,-1,-1,118,120,122,-1,-1,124,126,128,130,-1,-1,132,-1,-1,134,-1,-1,136,138,140,142,144,146,148,-1,-1,-1,-1,-1,150,-1,-1,-1,-1,152,154,156,158,-1,160,162,-1,164,166,-1,168,-1,170,172,-1,-1,-1,-1,-1,-1,-1,174,176,178,180,182,184,186,188,190,192,194,196,-1,-1,198,200,-1,202,204,206,-1,208,210,-1,212,-1,-1,214,-1,-1,-1,216,218,220,222,224,226,-1,228,230,-1,232,234,236,238,-1,240,-1,242,244,246,248,250,252,254,256,258,-1,260,262,264,266,268,270,-1,-1,-1,272,274,276,278,280,-1,282,284,286,-1,288,290,-1,292,294,296,-1,-1,-1,-1,-1,-1,-1,-1,-1,-1,-1,-1,-1,-1,-1,-1,-1,-1,-1,-1,-1,-1,-1,-1,-1,-1,-1,-1,-1,-1,-1,-1,-1,-1,-1,-1,-1,-1,-1,-1,-1,-1,-1,-1,-1,-1,-1,-1,-1,-1,-1,-1,-1,-1,-1,-1,-1,-1,-1,-1,-1,-1,-1,-1,-1,-1,-1,-1,-1,-1,-1,-1,-1,-1,-1,-1,-1,-1,-1,-1],"split_conditions":[6.839E5,1.964E3,1.129952E6,1.01053E5,1.47E2,2.003E3,2.011E3,1.3E2,1.72083E5,6.16228E5,2.02E3,1.79E2,2.017E3,1.485555E6,1.44E2,1.93E3,1.44E2,1.961E3,2.09E2,2.018E3,2.007E3,3.57026E5,3.7788834E-2,1.976E3,-6.737161E-3,1.17E2,3.1061316E-2,2.001E3,7.392412E-2,1.1077643E-3,2.9906368E-2,8.177E4,2.6518E4,2.8223E4,5.2397E4,1.54E2,1.11478E5,3.086182E-2,1.3228702E-2,1.15E2,3.3432E5,1.16E2,2.013E3,1.6E2,1.985E3,5.0831474E-2,9.49565E5,9.2E1,7.57904E5,5.230468E-2,2.006E3,1.0979629E-2,-2.22466E-3,-1.688056E-2,3.4677E4,-6.737161E-3,1.962E3,1.45E2,1.961E3,1.932E3,-2.22466E-3,1.962E3,-1.738159E-2,5.00875E5,1.99E3,1.12298E5,4.7912E5,1.997E3,2.002E3,1.19E2,6.52719E5,1.972E3,1.7E2,2.464416E-2,1.69E2,2.364806E-2,3.7618306E-2,-1.1249661E-2,7.17585E5,7.17585E5,1.5E2,7.4911597E-3,2.8736759E-2,1.11E2,9.309E4,1.959E3,4.2285E4,-2.22466E-3,-1.4477842E-2,1.75E2,1.1312842E-2,2.6364645E-2,8.1E1,1.1312842E-2,2.2878647E-3,1.998E3,2.004E3,1.87927E5,5.8192E4,2.019E3,2.02E3,4.28521E5,2.936287E-2,8.751806E-3,2.2878647E-3,3.390339E-2,1.165549E-2,2.01E3,-1.688057E-2,9.670759E-3,-2.22466E-3,-1.843748E-2,1.49E2,3.11365E5,2.9118E5,2.006E3,1.4559174E-2,2.01E3,2.015E3,2.9706636E-3,2.006E3,1.020727E6,-6.737161E-3,1E2,1.1952988E-2,1.957E3,9.7222E4,1.475389E-2,2.9443742E-3,3.1981405E-2,6.8003656E-3,3.432999E-3,-2.22466E-3,2.2878647E-3,1.942E3,2.46963E5,2.56906E5,5.17359E5,2.005E3,3.058E4,1.2E2,1.21E2,3.29592E5,2.6429E4,3.7605E4,2.019E3,7.319689E-3,2.2209167E-2,1.31E2,2.008E3,5.9789973E-3,2.863E4,2.12651E5,1.20539E5,-2.3485185E-3,8.3363E4,2.01E3,-2.0813808E-2,2.008E3,-1.1249661E-2,5.392611E-3,2.004E3,2.2878647E-3,2.2477151E-3,-1.5998041E-2,8.87429E5,2.011E3,9.1E1,3.1572E4,7.7071E4,7.0367E4,1.165549E-2,8.6E1,1.941E3,1.7600747E-2,1.994E3,1.02E2,2.53228E5,2.005E3,2.1907425E-2,1.999E3,-2.4349212E-3,1.07E2,1.23E2,5.1679E4,1.983E3,1.33E2,3.8746E4,1.26E2,2.009E3,4.51479E5,-7.059455E-3,1.25E2,1.21E2,9.7E1,1.02E2,2.37696E5,2.019E3,3.2109262E-3,2.0880222E-3,-2.22466E-3,2.017E3,2.93811E5,7.7071E4,1.989E3,1.63E2,3.1894803E-2,4.2285E4,1.71E2,1.979E3,-2.3485185E-3,4.66134E5,4.63188E5,8.751806E-3,1.13E2,1.31E2,2.004E3,1.4559174E-2,2.2878647E-3,-4.8525813E-3,7.565754E-3,-1.0746884E-2,7.541498E-4,-9.087777E-3,-4.394422E-3,4.3096407E-3,-1.0241724E-2,-2.22466E-3,2.9443742E-3,8.381733E-3,1.1187553E-3,-1.30058E-2,-3.8425673E-3,1.0015258E-2,-7.7047395E-3,-1.1968E-2,7.931518E-3,-2.4450252E-2,-1.3593604E-2,9.058619E-3,-6.7191604E-3,-1.421051E-2,-2.4349212E-3,2.079196E-2,3.141892E-3,-1.3080117E-2,-2.525773E-3,-6.584263E-3,-1.5842676E-3,1.3433985E-2,2.6700655E-3,-2.1183094E-2,-2.8497379E-3,9.351582E-3,-1.6395597E-3,-1.685332E-2,-4.3405397E-3,-1.7259121E-3,-9.787186E-3,8.461321E-3,2.3404825E-2,-5.771506E-3,1.7369287E-2,1.2069655E-2,-1.3805001E-2,-2.6063682E-3,-2.2722999E-2,-9.109044E-3,-1.9120694E-3,-1.103909E-2,-2.22466E-3,-7.623291E-3,2.0876694E-2,-1.6354322E-2,-2.22466E-3,6.2669055E-3,-5.4422985E-3,2.590545E-2,7.7516E-3,1.7756589E-2,8.132304E-3,-4.029948E-3,1.04781035E-2,-1.4977582E-2,3.6915144E-4,5.554676E-3,2.6273409E-2,-1.0965792E-2,1.2562974E-2,-1.0112763E-3,-1.4546983E-2,2.8710244E-2,6.8003656E-3,8.6265085E-3,3.1089187E-3,2.2878647E-3,-2.22466E-3],"split_indices":[2,0,2,2,1,0,0,1,2,2,0,1,0,2,1,0,1,0,1,0,0,2,0,0,0,1,0,0,0,0,0,2,2,2,2,1,2,0,0,1,2,1,0,1,0,0,2,1,2,0,0,0,0,0,2,0,0,1,0,0,0,0,0,2,0,2,2,0,0,1,2,0,1,0,1,0,0,0,2,2,1,0,0,1,2,0,2,0,0,1,0,0,1,0,0,0,0,2,2,0,0,2,0,0,0,0,0,0,0,0,0,0,1,2,2,0,0,0,0,0,0,2,0,1,0,0,2,0,0,0,0,0,0,0,0,2,2,2,0,2,1,1,2,2,2,0,0,0,1,0,0,2,2,2,0,2,0,0,0,0,0,0,0,0,0,2,0,1,2,2,2,0,1,0,0,0,1,2,0,0,0,0,1,1,2,0,1,2,1,0,2,0,1,1,1,1,2,0,0,0,0,0,2,2,0,1,0,2,1,0,0,2,2,0,1,1,0,0,0,0,0,0,0,0,0,0,0,0,0,0,0,0,0,0,0,0,0,0,0,0,0,0,0,0,0,0,0,0,0,0,0,0,0,0,0,0,0,0,0,0,0,0,0,0,0,0,0,0,0,0,0,0,0,0,0,0,0,0,0,0,0,0,0,0,0,0,0,0,0,0,0,0,0,0,0,0,0],"split_type":[0,0,0,0,0,0,0,0,0,0,0,0,0,0,0,0,0,0,0,0,0,0,0,0,0,0,0,0,0,0,0,0,0,0,0,0,0,0,0,0,0,0,0,0,0,0,0,0,0,0,0,0,0,0,0,0,0,0,0,0,0,0,0,0,0,0,0,0,0,0,0,0,0,0,0,0,0,0,0,0,0,0,0,0,0,0,0,0,0,0,0,0,0,0,0,0,0,0,0,0,0,0,0,0,0,0,0,0,0,0,0,0,0,0,0,0,0,0,0,0,0,0,0,0,0,0,0,0,0,0,0,0,0,0,0,0,0,0,0,0,0,0,0,0,0,0,0,0,0,0,0,0,0,0,0,0,0,0,0,0,0,0,0,0,0,0,0,0,0,0,0,0,0,0,0,0,0,0,0,0,0,0,0,0,0,0,0,0,0,0,0,0,0,0,0,0,0,0,0,0,0,0,0,0,0,0,0,0,0,0,0,0,0,0,0,0,0,0,0,0,0,0,0,0,0,0,0,0,0,0,0,0,0,0,0,0,0,0,0,0,0,0,0,0,0,0,0,0,0,0,0,0,0,0,0,0,0,0,0,0,0,0,0,0,0,0,0,0,0,0,0,0,0,0,0,0,0,0,0,0,0,0,0,0,0,0,0,0,0,0,0,0,0,0,0,0,0],"sum_hessian":[1E3,8.93E2,1.07E2,1.59E2,7.34E2,7.8E1,2.9E1,1.1E2,4.9E1,6.15E2,1.19E2,4.1E1,3.7E1,2.4E1,5E0,9E1,2E1,2.8E1,2.1E1,5.94E2,2.1E1,1.17E2,2E0,4E1,1E0,3.4E1,3E0,1.3E1,1.1E1,1E0,4E0,8E0,8.2E1,1.1E1,9E0,2.4E1,4E0,1.8E1,3E0,5.57E2,3.7E1,9E0,1.2E1,9.4E1,2.3E1,4E0,3.6E1,1.5E1,1.9E1,9E0,4E0,7E0,1E0,4E0,7.8E1,1E0,1E1,3E0,6E0,2.3E1,1E0,2E0,2E0,2.88E2,2.69E2,3E1,7E0,3E0,6E0,8E0,4E0,3.8E1,5.6E1,3E0,2E1,2.6E1,1E1,1E0,1.4E1,6E0,1.3E1,1E0,3E0,2.7E1,5.1E1,7E0,3E0,1E0,2E0,5E0,1E0,5E0,1.8E1,1E0,1E0,2.76E2,1.2E1,5.8E1,2.11E2,1.9E1,1.1E1,6E0,1E0,2E0,1E0,4E0,2E0,4E0,4E0,3E0,1E0,3E0,3.5E1,1.7E1,3.9E1,1.8E1,2E0,4E0,1E1,2E0,4E0,1.2E1,1E0,2.2E1,5E0,4.6E1,5E0,5E0,2E0,2E0,1E0,4E0,1E0,1E0,1.7E1,1.32E2,1.44E2,6E0,6E0,4.3E1,1.5E1,5.1E1,1.6E2,7E0,1.2E1,1E1,1E0,3E0,3E0,2E0,2E0,6E0,2.9E1,1.6E1,1E0,3.5E1,4E0,4E0,1.4E1,1E0,3E0,9E0,1E0,1E0,3E0,9E0,3E0,1.5E1,7E0,3.7E1,9E0,2E0,3E0,3E0,1.4E1,1.12E2,2E1,1.06E2,3.8E1,2E0,4E0,1E0,5E0,4E0,3.9E1,2E0,1.3E1,1E1,4.1E1,1.01E2,5.9E1,1E0,6E0,5E0,7E0,5E0,5E0,2E0,1E0,1E0,1E0,2E0,4E0,2.2E1,7E0,1.3E1,3E0,2.2E1,1.3E1,3E0,1E0,4E0,1E1,2E0,7E0,7E0,2E0,2E0,1E0,5E0,1E1,5E0,2E0,2.8E1,9E0,6E0,3E0,1E0,2E0,2E0,1E0,9.4E1,1.8E1,1.1E1,9E0,1.05E2,1E0,1.3E1,2.5E1,2E0,2E0,4E0,1E0,1E0,3E0,1.3E1,2.6E1,1E0,1E0,1.1E1,2E0,5E0,5E0,8E0,3.3E1,7.1E1,3E1,3.1E1,2.8E1,3E0,3E0,3E0,2E0,1E0,6E0,1E0,4E0,3E0,2E0,1E0,1E0,1E0,1E0,3E0,1E0,1.2E1,1E1,2E0,5E0,5E0,8E0,7E0,1.5E1,2E0,1.1E1,1E0,2E0,2E0,2E0,2E0,8E0,6E0,1E0,4E0,3E0,1E0,1E0],"tree_param":{"num_deleted":"0","num_feature":"3","num_nodes":"297","size_leaf_vector":"1"}},{"base_weights":[1.7058214E-3,-3.2439675E-2,2.8433886E-1,5.8663975E-2,-5.2227627E-2,1.935292E-1,5.13993E-1,-2.5593827E-3,1.9340655E-1,-7.0327476E-2,4.1120168E-2,3.302634E-1,1.2785858E-1,5.6092197E-1,2.3279016E-1,-2.151233E-2,7.969193E-2,1.335391E-1,2.6353154E-1,-7.596641E-2,8.5376784E-2,3.285027E-2,3.526961E-2,5.2304108E-2,2.907592E-1,1.9364469E-1,9.333204E-2,4.2609432E-1,6.714774E-2,5.992508E-2,3.0424142E-2,8.436044E-2,-3.2733325E-2,-7.413435E-2,1.2024719E-1,1.640362E-1,-4.56542E-2,2.705742E-1,5.7817698E-3,-8.505996E-2,-1.549387E-2,2.1744308E-1,-2.2780124E-2,9.4865695E-2,1.3407608E-2,1.7562823E-1,3.6581166E-2,2.125653E-1,-6.4002993E-3,6.849567E-2,2.8731728E-2,4.8984986E-2,2.5944535E-2,1.0523796E-3,7.936383E-3,1.0018909E-2,-2.1134377E-3,-1.5530118E-1,-2.456152E-2,-1.699543E-2,-1.5134501E-2,1.8162999E-1,2.8487802E-2,1.7263223E-1,-2.1134377E-3,8.613777E-2,-1.622281E-2,3.164581E-1,2.0009266E-2,-3.3474877E-2,-9.3196884E-2,-2.6448948E-2,1.5193109E-2,7.2129965E-2,2.6941586E-1,-6.7965664E-2,6.3109875E-2,2.6601769E-2,2.622003E-2,4.149743E-2,-8.2201205E-2,-1.4036179E-3,1.9599828E-1,1.2551975E-1,2.759925E-2,1.2670133E-1,1.850636E-2,-4.7063115E-3,-1.7059494E-2,4.0865086E-2,-4.1826453E-2,-5.6758244E-3,5.114651E-3,1.13087654E-1,2.5617158E-1,1.851218E-3,1.0747194E-2,1.2391211E-1,2.1102635E-2,1.0747194E-2,2.1734715E-3,1.3206927E-1,3.42759E-2,-6.99543E-2,1.226509E-1,-1.0663992E-1,-6.2098052E-2,-5.0730046E-2,4.7786385E-2,8.168348E-3,2.1734715E-3,3.119114E-2,1.0878468E-2,3.2963086E-2,-1.5530129E-2,8.945453E-3,-2.1134377E-3,-6.0454942E-2,9.693221E-2,-2.748859E-2,7.512591E-2,-1.1230958E-1,1.3588555E-2,2.0978387E-1,3.5964013E-3,1.5511744E-1,1.4618556E-2,-1.06871845E-2,1.4939766E-1,-6.657757E-2,5.9726443E-2,1.5712518E-3,1.3485603E-2,-5.175162E-2,6.1087925E-2,1.4183426E-2,2.748076E-3,2.9849306E-2,6.460357E-3,3.1583407E-3,-4.83195E-3,1.7711627E-1,3.2321215E-2,2.2405196E-2,-2.5948049E-3,-1.7159097E-2,-5.7365887E-2,1.9296944E-1,8.593044E-2,-5.476011E-2,-1.13256395E-1,4.6883086E-3,-9.0670235E-2,3.929681E-2,-7.561047E-2,2.5064168E-2,-4.2564902E-2,5.7091876E-3,-2.1533966E-3,-1.606226E-2,3.309393E-2,1.2167649E-1,-8.762741E-3,2.0979643E-2,-1.1060005E-1,-1.3646212E-2,9.884611E-2,-1.9148692E-2,-7.8429826E-2,8.128515E-3,2.3488563E-2,5.3946017E-3,2.1750951E-2,3.5964013E-3,-1.4036179E-3,-2.84338E-3,2.0501652E-1,2.795776E-3,-1.0998325E-1,7.41674E-2,-6.4002993E-3,5.7733633E-2,-2.9804654E-2,-6.120459E-2,2.5863511E-2,1.0878468E-2,1.0043383E-2,1.8948993E-2,4.5250417E-3,-1.3459523E-2,5.8576465E-3,-1.6111875E-2,-4.8103586E-2,3.715253E-3,2.3252424E-2,9.356699E-2,4.7824383E-4,-1.1483486E-1,8.196755E-3,-1.21727504E-1,-8.29527E-2,-2.2656653E-2,1.4464977E-1,-1.11549586E-1,-3.0166222E-2,-6.957787E-2,1.7791359E-1,-5.438073E-2,-1.6700042E-2,-9.262788E-2,1.7187531E-1,-2.1134377E-3,1.7904282E-3,6.0188454E-3,4.4995546E-3,1.2918147E-2,2.3313283E-3,-8.210192E-2,6.218199E-2,-1.3063943E-1,2.485752E-3,8.593416E-2,-8.282559E-2,1.1114467E-2,1.2978189E-1,8.9443205E-3,-1.11015365E-1,-1.06871845E-2,4.9881697E-2,2.2117123E-1,2.1734715E-3,-1.4798201E-2,2.100587E-3,5.1305007E-2,1.12781525E-1,1.2828589E-3,6.5752747E-3,-9.056006E-3,3.6911678E-3,-8.367114E-3,-2.9239324E-3,8.377171E-3,-1.4054108E-3,-2.1134377E-3,2.748076E-3,2.1734715E-3,-4.1924003E-3,8.483387E-3,-6.4397524E-3,3.3626915E-3,1.1445175E-2,-1.4127092E-2,-1.25597E-3,1.4519853E-2,-8.382082E-3,-1.1096671E-2,-1.4385037E-2,-1.2121499E-3,-1.0483492E-2,-3.598014E-3,9.292627E-3,8.523407E-3,1.9545937E-2,-8.370614E-3,-1.4898816E-2,7.0823603E-3,-6.4004348E-3,-1.742603E-2,-5.640348E-4,2.9912235E-3,2.015314E-2,-2.2563646E-3,-1.3042598E-2,-1.68705E-4,-1.3788742E-2,-2.1134377E-3,2.7894735E-2,2.3790519E-3,-2.668667E-3,2.1366596E-3,-1.5820313E-2,1.3404572E-2,-6.5236376E-3,-3.453843E-3,-1.569167E-2,-7.2421315E-3,1.4362836E-2,-1.1750786E-2,6.263399E-3,-1.3264311E-2,8.160395E-3,1.3624131E-2,-2.2310973E-3,-1.0234738E-2,1.1725458E-2,-1.4237339E-2,-2.0545484E-3,6.6587925E-3,2.211698E-3,8.168348E-3,2.4583274E-2,6.3981176E-3,4.0022533E-5,1.3588555E-2,2.1734715E-3],"categories":[],"categories_nodes":[],"categories_segments":[],"categories_sizes":[],"default_left":[0,0,0,0,0,0,0,0,0,0,0,0,0,0,0,0,0,0,0,0,0,0,0,0,0,0,0,0,0,0,0,0,0,0,0,0,0,0,0,0,0,0,0,0,0,0,0,0,0,0,0,0,0,0,0,0,0,0,0,0,0,0,0,0,0,0,0,0,0,0,0,0,0,0,0,0,0,0,0,0,0,0,0,0,0,0,0,0,0,0,0,0,0,0,0,0,0,0,0,0,0,0,0,0,0,0,0,0,0,0,0,0,0,0,0,0,0,0,0,0,0,0,0,0,0,0,0,0,0,0,0,0,0,0,0,0,0,0,0,0,0,0,0,0,0,0,0,0,0,0,0,0,0,0,0,0,0,0,0,0,0,0,0,0,0,0,0,0,0,0,0,0,0,0,0,0,0,0,0,0,0,0,0,0,0,0,0,0,0,0,0,0,0,0,0,0,0,0,0,0,0,0,0,0,0,0,0,0,0,0,0,0,0,0,0,0,0,0,0,0,0,0,0,0,0,0,0,0,0,0,0,0,0,0,0,0,0,0,0,0,0,0,0,0,0,0,0,0,0,0,0,0,0,0,0,0,0,0,0,0,0,0,0,0,0,0,0,0,0,0,0,0,0,0,0,0,0,0,0,0,0,0,0,0,0,0,0,0,0,0,0,0,0,0,0,0,0,0,0,0,0,0,0,0,0],"id":3,"left_children":[1,3,5,7,9,11,13,15,17,19,21,23,25,27,29,31,33,35,37,39,41,43,-1,-1,45,47,49,51,-1,53,-1,55,57,59,61,63,65,67,-1,69,71,73,75,77,79,81,-1,83,-1,85,-1,-1,-1,-1,-1,-1,-1,87,89,91,-1,93,95,97,-1,99,-1,101,-1,103,105,107,-1,109,111,113,115,117,-1,119,121,-1,123,125,-1,127,129,-1,-1,131,133,-1,-1,135,137,139,-1,141,-1,-1,-1,143,-1,145,147,149,151,153,155,-1,-1,-1,-1,157,-1,-1,-1,159,161,163,165,167,-1,169,-1,171,173,-1,175,177,179,181,-1,183,185,-1,-1,-1,-1,-1,-1,187,189,-1,-1,-1,191,193,195,197,199,201,203,205,207,-1,209,-1,211,-1,213,215,-1,217,219,221,223,-1,225,-1,-1,-1,-1,-1,-1,227,229,-1,231,233,-1,235,237,239,241,-1,243,-1,-1,245,-1,-1,247,-1,-1,249,-1,251,253,255,257,259,261,263,265,267,269,271,-1,273,275,-1,-1,-1,277,-1,-1,279,281,283,-1,285,287,289,291,293,295,-1,297,299,-1,-1,-1,301,303,-1,-1,-1,-1,-1,-1,-1,-1,-1,-1,-1,-1,-1,-1,-1,-1,-1,-1,-1,-1,-1,-1,-1,-1,-1,-1,-1,-1,-1,-1,-1,-1,-1,-1,-1,-1,-1,-1,-1,-1,-1,-1,-1,-1,-1,-1,-1,-1,-1,-1,-1,-1,-1,-1,-1,-1,-1,-1,-1,-1,-1,-1,-1,-1,-1,-1,-1,-1,-1,-1],"loss_changes":[9.66952E0,1.6147267E0,2.1528473E0,1.3203979E0,1.2447338E0,6.6714716E-1,2.6531935E-1,1.7475279E-1,1.747185E-1,5.4733753E-1,2.9761797E-1,3.8309097E-2,1.06851876E-1,8.653593E-2,5.587685E-2,1.1086921E-1,1.3992223E-1,1.6597027E-1,1.6229033E-2,3.2587862E-1,3.191988E-1,1.4100598E-1,0E0,0E0,1.3449311E-1,1.01352215E-1,1.6339979E-1,2.1657705E-2,0E0,2.0456882E-3,0E0,1.7145991E-2,7.931843E-2,1.94865E-2,9.0577364E-2,4.3441772E-2,9.079149E-2,4.5924187E-3,0E0,2.1388769E-1,1.4891657E-1,5.6090266E-2,5.4742124E-2,3.1286672E-1,2.478039E-1,4.5249283E-2,0E0,5.9215426E-2,0E0,9.949334E-2,0E0,0E0,0E0,0E0,0E0,0E0,0E0,2.4810433E-4,9.094654E-2,1.3741048E-2,0E0,2.2122681E-2,1.6631987E-2,1.8744886E-2,0E0,1.7860867E-3,0E0,8.077621E-3,0E0,4.1864717E-1,1.7983437E-1,1.3761285E-1,0E0,1.504384E-4,1.3851583E-2,8.445129E-2,1.2987498E-2,1.344375E-1,0E0,1.6677767E-1,1.5315224E-1,0E0,1.4516979E-2,2.7274176E-2,0E0,1.0078648E-1,7.411978E-2,0E0,0E0,6.2573604E-2,6.751229E-2,0E0,0E0,1.3328642E-2,1.3146043E-2,1.196789E-2,0E0,5.762461E-2,0E0,0E0,0E0,4.941828E-2,0E0,6.564376E-2,1.9567877E-2,1.0020876E-1,2.6185286E-1,1.3064589E-1,3.5890502E-1,0E0,0E0,0E0,0E0,4.359532E-3,0E0,0E0,0E0,9.902134E-2,6.546373E-2,9.8998725E-2,1.0242209E-1,3.5949394E-2,0E0,9.937137E-3,0E0,3.2452285E-2,2.3397426E-3,0E0,1.2759504E-1,3.1798474E-2,2.9761732E-2,2.4628622E-2,0E0,4.413718E-2,1.3515389E-2,0E0,0E0,0E0,0E0,0E0,0E0,4.4787824E-3,8.00032E-3,0E0,0E0,0E0,4.4143066E-2,1.6014352E-2,6.369129E-3,1.4087963E-1,6.0239792E-2,1.640214E-1,1.1791021E-1,2.08573E-1,7.8226715E-2,0E0,1.6621768E-1,0E0,1.5205389E-3,0E0,4.377685E-3,5.108729E-3,0E0,7.306049E-2,2.7677752E-2,8.289554E-2,1.01691306E-1,0E0,4.3699957E-2,0E0,0E0,0E0,0E0,0E0,0E0,3.2755494E-2,2.7762413E-2,0E0,2.7995601E-2,5.690284E-3,0E0,9.5697865E-4,3.9823122E-2,3.4897268E-2,1.7358238E-2,0E0,2.7554224E-3,0E0,0E0,3.9165625E-3,0E0,0E0,1.1593287E-1,0E0,0E0,8.669682E-3,0E0,4.9596995E-2,2.516955E-1,3.4506083E-2,9.6375704E-2,5.8782324E-2,4.4724047E-3,6.1540544E-2,9.338299E-2,5.2562196E-2,1.4944553E-2,8.899956E-2,0E0,4.9158663E-2,6.789321E-2,0E0,0E0,0E0,3.041339E-3,0E0,0E0,4.2750657E-2,1.18625775E-1,1.4782518E-2,0E0,5.6082718E-2,4.2674057E-2,1.2229156E-1,3.0547708E-2,7.2270855E-2,2.828139E-2,0E0,3.8265157E-4,1.4319301E-2,0E0,0E0,0E0,6.427169E-3,5.4607615E-3,0E0,0E0,0E0,0E0,0E0,0E0,0E0,0E0,0E0,0E0,0E0,0E0,0E0,0E0,0E0,0E0,0E0,0E0,0E0,0E0,0E0,0E0,0E0,0E0,0E0,0E0,0E0,0E0,0E0,0E0,0E0,0E0,0E0,0E0,0E0,0E0,0E0,0E0,0E0,0E0,0E0,0E0,0E0,0E0,0E0,0E0,0E0,0E0,0E0,0E0,0E0,0E0,0E0,0E0,0E0,0E0,0E0,0E0,0E0,0E0,0E0,0E0,0E0,0E0,0E0,0E0,0E0,0E0,0E0,0E0],"parents":[2147483647,0,0,1,1,2,2,3,3,4,4,5,5,6,6,7,7,8,8,9,9,10,10,11,11,12,12,13,13,14,14,15,15,16,16,17,17,18,18,19,19,20,20,21,21,24,24,25,25,26,26,27,27,29,29,31,31,32,32,33,33,34,34,35,35,36,36,37,37,39,39,40,40,41,41,42,42,43,43,44,44,45,45,47,47,49,49,57,57,58,58,59,59,61,61,62,62,63,63,65,65,67,67,69,69,70,70,71,71,73,73,74,74,75,75,76,76,77,77,79,79,80,80,82,82,83,83,85,85,86,86,89,89,90,90,93,93,94,94,95,95,97,97,101,101,103,103,104,104,105,105,106,106,107,107,108,108,113,113,117,117,118,118,119,119,120,120,121,121,123,123,125,125,126,126,128,128,129,129,130,130,131,131,133,133,134,134,141,141,142,142,146,146,147,147,148,148,149,149,150,150,151,151,152,152,153,153,154,154,156,156,158,158,160,160,161,161,163,163,164,164,165,165,166,166,168,168,175,175,176,176,178,178,179,179,181,181,182,182,183,183,184,184,186,186,189,189,192,192,195,195,197,197,198,198,199,199,200,200,201,201,202,202,203,203,204,204,205,205,206,206,207,207,209,209,210,210,214,214,217,217,218,218,219,219,221,221,222,222,223,223,224,224,225,225,226,226,228,228,229,229,233,233,234,234],"right_children":[2,4,6,8,10,12,14,16,18,20,22,24,26,28,30,32,34,36,38,40,42,44,-1,-1,46,48,50,52,-1,54,-1,56,58,60,62,64,66,68,-1,70,72,74,76,78,80,82,-1,84,-1,86,-1,-1,-1,-1,-1,-1,-1,88,90,92,-1,94,96,98,-1,100,-1,102,-1,104,106,108,-1,110,112,114,116,118,-1,120,122,-1,124,126,-1,128,130,-1,-1,132,134,-1,-1,136,138,140,-1,142,-1,-1,-1,144,-1,146,148,150,152,154,156,-1,-1,-1,-1,158,-1,-1,-1,160,162,164,166,168,-1,170,-1,172,174,-1,176,178,180,182,-1,184,186,-1,-1,-1,-1,-1,-1,188,190,-1,-1,-1,192,194,196,198,200,202,204,206,208,-1,210,-1,212,-1,214,216,-1,218,220,222,224,-1,226,-1,-1,-1,-1,-1,-1,228,230,-1,232,234,-1,236,238,240,242,-1,244,-1,-1,246,-1,-1,248,-1,-1,250,-1,252,254,256,258,260,262,264,266,268,270,272,-1,274,276,-1,-1,-1,278,-1,-1,280,282,284,-1,286,288,290,292,294,296,-1,298,300,-1,-1,-1,302,304,-1,-1,-1,-1,-1,-1,-1,-1,-1,-1,-1,-1,-1,-1,-1,-1,-1,-1,-1,-1,-1,-1,-1,-1,-1,-1,-1,-1,-1,-1,-1,-1,-1,-1,-1,-1,-1,-1,-1,-1,-1,-1,-1,-1,-1,-1,-1,-1,-1,-1,-1,-1,-1,-1,-1,-1,-1,-1,-1,-1,-1,-1,-1,-1,-1,-1,-1,-1,-1,-1],"split_conditions":[6.839E5,1.964E3,1.129952E6,1.01053E5,1.47E2,1.996E3,2.011E3,1.3E2,1.72083E5,6.16228E5,2.02E3,1.967E3,2.003E3,1.485555E6,1.308302E6,1.93E3,3.4357E4,1.961E3,2.29E2,2.016E3,2.007E3,1.985E3,3.526961E-2,5.2304108E-2,8.87429E5,1.51E2,2.017E3,2E3,6.714774E-2,2.013E3,3.0424142E-2,8.177E4,2.6518E4,1.45E2,1.44E2,1.54E2,1.11478E5,1.955E3,5.7817698E-3,1.977E3,1.39E2,1.16E2,2.013E3,2.18957E5,3.57026E5,1.08E2,3.6581166E-2,1.18E2,-6.4002993E-3,1.17E2,2.8731728E-2,4.8984986E-2,2.5944535E-2,1.0523796E-3,7.936383E-3,1.0018909E-2,-2.1134377E-3,1.933E3,3.0144E4,2.8223E4,-1.5134501E-2,1.962E3,6.6803E4,1.42863E5,-2.1134377E-3,1.962E3,-1.622281E-2,1.94E3,2.0009266E-2,1.81285E5,1.25E2,3.3432E5,1.5193109E-2,1.997E3,2.002E3,1.19E2,6.52719E5,1.972E3,2.622003E-2,2E3,1.69E2,-1.4036179E-3,1.99E3,2.001E3,2.759925E-2,9.2E1,7.57904E5,-4.7063115E-3,-1.7059494E-2,2.863E4,9.309E4,-5.6758244E-3,5.114651E-3,1.959E3,4.2285E4,1.75E2,1.0747194E-2,1.2321E5,2.1102635E-2,1.0747194E-2,2.1734715E-3,1.937E3,3.42759E-2,1.966E3,1.966E3,9E1,6.5659E4,4.3542E4,4.34143E5,8.168348E-3,2.1734715E-3,3.119114E-2,1.0878468E-2,1.12E2,-1.5530129E-2,8.945453E-3,-2.1134377E-3,1.71E2,1.983E3,1.996E3,1.53E2,2.006E3,1.3588555E-2,7.0381E5,3.5964013E-3,2E3,9.3E1,-1.06871845E-2,7.17585E5,2.006E3,1.5E2,2.7007E4,1.3485603E-2,1.961E3,9.7222E4,1.4183426E-2,2.748076E-3,2.9849306E-2,6.460357E-3,3.1583407E-3,-4.83195E-3,1.958E3,1.02E2,2.2405196E-2,-2.5948049E-3,-1.7159097E-2,2.7007E4,2.00876E5,5.22093E5,8.6E1,3.29592E5,1.42E2,3.71379E5,3.3935E4,1.33E2,2.5064168E-2,2.019E3,5.7091876E-3,2.01E3,-1.606226E-2,4.7175E4,1.5014E5,-8.762741E-3,1.988E3,2.40714E5,1.15576E5,5.3054E4,-1.9148692E-2,2.008E3,8.128515E-3,2.3488563E-2,5.3946017E-3,2.1750951E-2,3.5964013E-3,-1.4036179E-3,2.01E3,2.015E3,2.795776E-3,2.015E3,1.020727E6,-6.4002993E-3,1.935E3,2.8057E4,1.06E2,9.7E1,1.0878468E-2,8.6E1,1.8948993E-2,4.5250417E-3,1.949E3,5.8576465E-3,-1.6111875E-2,3.058E4,3.715253E-3,2.3252424E-2,2.37696E5,4.7824383E-4,1.93674E5,1.998E3,1.65167E5,2E3,6.3122E4,5.1284E4,2.0315E5,1.998E3,2.018E3,1.14E2,1.98089E5,-1.6700042E-2,2.017E3,1.31E2,-2.1134377E-3,1.7904282E-3,6.0188454E-3,1.966E3,1.2918147E-2,2.3313283E-3,1.986E3,1.83E2,5.9556E4,2.485752E-3,2.765E4,2.019E3,2.012E3,2.018E3,4.66134E5,6.00004E5,-1.06871845E-2,1E2,2.004E3,2.1734715E-3,-1.4798201E-2,2.100587E-3,8.87429E5,2.011E3,1.2828589E-3,6.5752747E-3,-9.056006E-3,3.6911678E-3,-8.367114E-3,-2.9239324E-3,8.377171E-3,-1.4054108E-3,-2.1134377E-3,2.748076E-3,2.1734715E-3,-4.1924003E-3,8.483387E-3,-6.4397524E-3,3.3626915E-3,1.1445175E-2,-1.4127092E-2,-1.25597E-3,1.4519853E-2,-8.382082E-3,-1.1096671E-2,-1.4385037E-2,-1.2121499E-3,-1.0483492E-2,-3.598014E-3,9.292627E-3,8.523407E-3,1.9545937E-2,-8.370614E-3,-1.4898816E-2,7.0823603E-3,-6.4004348E-3,-1.742603E-2,-5.640348E-4,2.9912235E-3,2.015314E-2,-2.2563646E-3,-1.3042598E-2,-1.68705E-4,-1.3788742E-2,-2.1134377E-3,2.7894735E-2,2.3790519E-3,-2.668667E-3,2.1366596E-3,-1.5820313E-2,1.3404572E-2,-6.5236376E-3,-3.453843E-3,-1.569167E-2,-7.2421315E-3,1.4362836E-2,-1.1750786E-2,6.263399E-3,-1.3264311E-2,8.160395E-3,1.3624131E-2,-2.2310973E-3,-1.0234738E-2,1.1725458E-2,-1.4237339E-2,-2.0545484E-3,6.6587925E-3,2.211698E-3,8.168348E-3,2.4583274E-2,6.3981176E-3,4.0022533E-5,1.3588555E-2,2.1734715E-3],"split_indices":[2,0,2,2,1,0,0,1,2,2,0,0,0,2,2,0,2,0,1,0,0,0,0,0,2,1,0,0,0,0,0,2,2,1,1,1,2,0,0,0,1,1,0,2,2,1,0,1,0,1,0,0,0,0,0,0,0,0,2,2,0,0,2,2,0,0,0,0,0,2,1,2,0,0,0,1,2,0,0,0,1,0,0,0,0,1,2,0,0,2,2,0,0,0,2,1,0,2,0,0,0,0,0,0,0,1,2,2,2,0,0,0,0,1,0,0,0,1,0,0,1,0,0,2,0,0,1,0,2,0,1,2,0,0,2,0,0,0,0,0,0,0,1,0,0,0,2,2,2,1,2,1,2,2,1,0,0,0,0,0,2,2,0,0,2,2,2,0,0,0,0,0,0,0,0,0,0,0,0,2,0,0,2,1,1,0,1,0,0,0,0,0,2,0,0,2,0,2,0,2,0,2,2,2,0,0,1,2,0,0,1,0,0,0,0,0,0,0,1,2,0,2,0,0,0,2,2,0,1,0,0,0,0,2,0,0,0,0,0,0,0,0,0,0,0,0,0,0,0,0,0,0,0,0,0,0,0,0,0,0,0,0,0,0,0,0,0,0,0,0,0,0,0,0,0,0,0,0,0,0,0,0,0,0,0,0,0,0,0,0,0,0,0,0,0,0,0,0,0,0,0,0,0,0,0],"split_type":[0,0,0,0,0,0,0,0,0,0,0,0,0,0,0,0,0,0,0,0,0,0,0,0,0,0,0,0,0,0,0,0,0,0,0,0,0,0,0,0,0,0,0,0,0,0,0,0,0,0,0,0,0,0,0,0,0,0,0,0,0,0,0,0,0,0,0,0,0,0,0,0,0,0,0,0,0,0,0,0,0,0,0,0,0,0,0,0,0,0,0,0,0,0,0,0,0,0,0,0,0,0,0,0,0,0,0,0,0,0,0,0,0,0,0,0,0,0,0,0,0,0,0,0,0,0,0,0,0,0,0,0,0,0,0,0,0,0,0,0,0,0,0,0,0,0,0,0,0,0,0,0,0,0,0,0,0,0,0,0,0,0,0,0,0,0,0,0,0,0,0,0,0,0,0,0,0,0,0,0,0,0,0,0,0,0,0,0,0,0,0,0,0,0,0,0,0,0,0,0,0,0,0,0,0,0,0,0,0,0,0,0,0,0,0,0,0,0,0,0,0,0,0,0,0,0,0,0,0,0,0,0,0,0,0,0,0,0,0,0,0,0,0,0,0,0,0,0,0,0,0,0,0,0,0,0,0,0,0,0,0,0,0,0,0,0,0,0,0,0,0,0,0,0,0,0,0,0,0,0,0,0,0,0,0,0,0,0,0,0,0,0,0,0,0,0,0,0,0,0,0,0,0,0,0],"sum_hessian":[1E3,8.93E2,1.07E2,1.59E2,7.34E2,7.8E1,2.9E1,1.1E2,4.9E1,6.15E2,1.19E2,2.4E1,5.4E1,2.4E1,5E0,9E1,2E1,2.8E1,2.1E1,5.94E2,2.1E1,1.17E2,2E0,2E0,2.2E1,1.7E1,3.7E1,1.3E1,1.1E1,2E0,3E0,8E0,8.2E1,4E0,1.6E1,2.4E1,4E0,2E1,1E0,5.16E2,7.8E1,9E0,1.2E1,2.7E1,9E1,1E1,1.2E1,1.6E1,1E0,3.4E1,3E0,8E0,5E0,1E0,1E0,7E0,1E0,4E0,7.8E1,3E0,1E0,9E0,7E0,2.3E1,1E0,2E0,2E0,1E1,1E1,7.1E1,4.45E2,7.4E1,4E0,3E0,6E0,8E0,4E0,2E1,7E0,7E1,2E1,1E0,9E0,8E0,8E0,1.5E1,1.9E1,1E0,3E0,1.6E1,6.2E1,2E0,1E0,6E0,3E0,6E0,1E0,1.2E1,1.1E1,1E0,1E0,2E0,8E0,5.8E1,1.3E1,3.09E2,1.36E2,5.6E1,1.8E1,2E0,1E0,4E0,2E0,4E0,4E0,3E0,1E0,9E0,1.1E1,2.3E1,4.7E1,1.8E1,2E0,8E0,1E0,6E0,2E0,1E0,1.4E1,6E0,1.3E1,1.2E1,4E0,5.7E1,5E0,4E0,2E0,2E0,1E0,4E0,2E0,7E0,5E0,1E0,1E0,5E0,5.3E1,3E0,1E1,3.6E1,2.73E2,4.1E1,9.5E1,1.2E1,4.4E1,5E0,1.3E1,2E0,2E0,4E0,5E0,1E1,1E0,1.5E1,8E0,1E1,3.7E1,4E0,1.4E1,2E0,6E0,3E0,3E0,1E0,1E0,4E0,1E1,2E0,4E0,1.2E1,1E0,4E0,8E0,5.1E1,6E0,2E0,3E0,6E0,1E0,2E0,3E0,3E0,5E1,1E0,2E0,9E0,1E0,1.8E1,1.8E1,2.11E2,6.2E1,3.5E1,6E0,7E1,2.5E1,7E0,5E0,3.7E1,7E0,1.1E1,2E0,1E0,1E0,2E0,3E0,9E0,1E0,4E0,1.1E1,7E0,1E0,4E0,6E0,1E1,2.7E1,4E0,1E1,1E0,3E0,9E0,1E0,3E0,1E0,9E0,3E0,1E0,3E0,4E0,4E0,2.9E1,2.2E1,2E0,4E0,1E0,2E0,1E0,1E0,5E0,4.5E1,3E0,6E0,1.4E1,4E0,7E0,1.1E1,1.46E2,6.5E1,1.5E1,4.7E1,3.2E1,3E0,4E0,2E0,4.2E1,2.8E1,6E0,1.9E1,2E0,5E0,1E0,4E0,2.7E1,1E1,4E0,7E0,1E0,1E0,2E0,1E0,2E0,2E0,7E0,4E0,2E0,5E0,1E0,3E0,5E0,1E0,3E0,7E0,2.6E1,1E0,2E0,2E0,7E0,3E0,1E0,2E0,2E0,7E0,7E0,2E0,2E0,1E0],"tree_param":{"num_deleted":"0","num_feature":"3","num_nodes":"305","size_leaf_vector":"1"}},{"base_weights":[2.1969932E-3,-2.8915346E-2,2.5971767E-1,5.3915154E-2,-4.6907134E-2,1.7709127E-1,4.686433E-1,-1.7995448E-3,1.7652349E-1,-6.3213415E-2,3.7189327E-2,3.0214486E-1,1.1702889E-1,5.1051277E-1,2.1607995E-1,-1.9258762E-2,7.394275E-2,1.2166797E-1,2.4080922E-1,-6.836811E-2,7.907093E-2,2.94506E-2,3.2918297E-2,4.8817158E-2,2.6474378E-1,1.7708768E-1,8.550029E-2,3.888372E-1,6.0992487E-2,5.6928795E-2,2.8142333E-2,7.6802835E-2,-2.9443046E-2,-6.986008E-2,1.11888126E-1,1.4948468E-1,-4.1749097E-2,2.5548112E-1,1.1091542E-1,-7.383714E-2,1.373946E-2,2.0094004E-1,-2.0756904E-2,8.61782E-2,1.1672319E-2,1.6113888E-1,3.3204454E-1,1.9465789E-1,-6.0802936E-3,6.2455315E-2,2.6576877E-2,4.0373687E-2,9.757089E-3,9.997607E-4,7.5395587E-3,9.142262E-3,-2.0077706E-3,-1.4412432E-2,-2.181204E-2,-1.54361725E-2,-1.4377785E-2,1.6879134E-1,2.6773095E-2,1.5738635E-1,-2.0077706E-3,8.183098E-2,-1.514128E-2,2.6797587E-2,9.951719E-3,3.3452034E-3,1.2558587E-2,-9.1583855E-2,-5.456811E-2,-1.9133322E-2,1.3940406E-1,6.75025E-2,2.4848434E-1,-6.229623E-2,5.8165263E-2,2.3758525E-2,2.3925757E-2,3.7128776E-2,-7.495058E-2,-1.3334275E-3,1.7991963E-1,3.4391474E-2,9.4800955E-3,1.1622736E-1,2.5145976E-2,1.2223829E-1,2.157272E-2,3.7718605E-2,-3.7529644E-2,-5.2974387E-3,4.858923E-3,1.0419791E-1,2.3963201E-1,1.426833E-3,1.0209846E-2,2.2480853E-2,1.2781163E-1,1.0209846E-2,2.0648004E-3,-9.558736E-2,7.664974E-4,-3.0545623E-3,-6.864703E-2,3.1370163E-2,-1.01711355E-1,8.360468E-2,2.6499987E-2,7.6238E-3,2.0648004E-3,2.869587E-2,1.015323E-2,3.074398E-2,-1.42877195E-2,8.274543E-3,-2.0077706E-3,-5.544267E-2,8.777964E-2,-2.5717279E-2,6.777829E-2,-1.0286537E-1,1.26826605E-2,1.9231828E-1,3.416586E-3,1.328818E-2,1.4374025E-1,-1.0152817E-2,1.4726096E-1,-3.2639187E-2,5.488232E-2,1.6059875E-3,1.2406769E-2,-4.6650954E-2,5.6897957E-2,1.3048783E-2,2.5648752E-3,2.785937E-2,6.1373473E-3,2.905655E-3,-4.5098304E-3,7.883533E-2,1.5626392E-1,-9.224544E-2,-1.9642895E-1,9.886728E-2,-9.744378E-2,-3.4540307E-2,8.3722144E-2,-9.992271E-3,-8.3949514E-2,1.2697208E-1,-2.9874874E-2,-1.7397039E-1,-2.5244849E-2,1.642684E-1,-7.870308E-2,-2.064069E-3,5.330404E-3,-1.4777279E-2,3.0739546E-2,1.10895246E-1,-8.3246E-3,-5.804466E-2,8.093897E-2,-1.2133165E-2,8.9126915E-2,-1.7616788E-2,-7.157351E-2,7.586638E-3,2.147522E-2,3.3266544E-3,-1.3334275E-3,4.4355392E-3,1.746231E-1,-1.13937855E-2,1.9599676E-1,4.277401E-3,-1.0152455E-1,6.845833E-2,-6.0802936E-3,5.3532027E-2,-2.7420256E-2,-1.0897568E-1,-3.449948E-2,1.015323E-2,9.197712E-3,1.2059704E-1,-3.516078E-3,4.5601847E-3,1.6276995E-2,-9.475401E-2,3.392434E-2,-5.902982E-3,-2.0762457E-2,2.0414878E-2,1.592493E-2,-1.3690583E-2,-5.42778E-3,9.938078E-2,-5.0416935E-2,-4.6535015E-2,1.0565424E-1,-1.10076554E-1,2.1748284E-2,-1.0522716E-1,-4.389596E-2,-6.6782716E-3,1.6419172E-1,1.1578989E-2,-5.166276E-2,-2.363229E-3,-1.9931154E-2,-5.3007443E-2,7.066536E-3,1.8663645E-2,3.73981E-3,-9.797692E-3,-2.0077706E-3,1.6981602E-3,-2.0077706E-3,5.6176027E-3,3.9772987E-3,1.1755524E-1,2.2147656E-3,1.432004E-2,-1.24604896E-1,2.246356E-2,7.2725294E-3,7.876482E-2,-7.532699E-2,9.5388675E-3,1.17210545E-1,8.348083E-3,-1.01394825E-1,2.0119596E-2,3.416586E-3,-1.0152817E-2,5.2493732E-2,2.1318573E-1,2.0648004E-3,1.9955398E-3,-1.3688338E-1,4.6818256E-2,1.05443954E-1,2.6903271E-3,8.002353E-3,-8.331518E-3,3.3958722E-3,-6.6559314E-4,-1.2093365E-2,-1.7051622E-3,-8.284712E-3,-2.0077706E-3,2.5648752E-3,4.2423885E-3,1.4907765E-2,2.186378E-3,-3.9827824E-3,-5.4370663E-3,-1.0169162E-2,1.6025687E-2,-6.9306134E-3,8.535529E-3,-5.8813733E-3,1.9328212E-2,2.758491E-3,-1.1198326E-2,-1.6626358E-3,-6.1944486E-3,-7.8580383E-4,1.3846308E-2,5.3064963E-3,-1.8493136E-2,-1.6875664E-3,-7.7425004E-3,4.0857997E-3,-1.3741632E-2,-3.3243902E-3,4.7360994E-3,-6.0928776E-3,7.9113245E-3,2.0822227E-2,3.92642E-3,-1.2221976E-2,-7.3562386E-3,-7.9317094E-4,2.2204558E-3,-2.535224E-3,3.3254623E-3,1.23227015E-2,6.6833566E-3,-8.115864E-3,1.9942285E-3,-1.6323447E-2,-2.9520274E-3,2.3850799E-3,-6.880021E-3,1.3285614E-2,-1.07715605E-2,5.950236E-3,-1.2269497E-2,7.4463426E-3,1.4134432E-2,5.9635304E-3,-9.552415E-3,1.0943762E-2,5.3087874E-6,-1.2394471E-2,1.5481949E-3,6.3258647E-3,7.6238E-3,2.4142252E-2,-1.5500753E-2,-4.1255476E-3,5.838275E-3,3.7352245E-5,1.26826605E-2,2.0648004E-3],"categories":[],"categories_nodes":[],"categories_segments":[],"categories_sizes":[],"default_left":[0,0,0,0,0,0,0,0,0,0,0,0,0,0,0,0,0,0,0,0,0,0,0,0,0,0,0,0,0,0,0,0,0,0,0,0,0,0,0,0,0,0,0,0,0,0,0,0,0,0,0,0,0,0,0,0,0,0,0,0,0,0,0,0,0,0,0,0,0,0,0,0,0,0,0,0,0,0,0,0,0,0,0,0,0,0,0,0,0,0,0,0,0,0,0,0,0,0,0,0,0,0,0,0,0,0,0,0,0,0,0,0,0,0,0,0,0,0,0,0,0,0,0,0,0,0,0,0,0,0,0,0,0,0,0,0,0,0,0,0,0,0,0,0,0,0,0,0,0,0,0,0,0,0,0,0,0,0,0,0,0,0,0,0,0,0,0,0,0,0,0,0,0,0,0,0,0,0,0,0,0,0,0,0,0,0,0,0,0,0,0,0,0,0,0,0,0,0,0,0,0,0,0,0,0,0,0,0,0,0,0,0,0,0,0,0,0,0,0,0,0,0,0,0,0,0,0,0,0,0,0,0,0,0,0,0,0,0,0,0,0,0,0,0,0,0,0,0,0,0,0,0,0,0,0,0,0,0,0,0,0,0,0,0,0,0,0,0,0,0,0,0,0,0,0,0,0,0,0,0,0,0,0,0,0,0,0,0,0,0,0,0,0,0,0,0,0,0,0,0,0,0,0,0,0,0,0,0,0,0,0,0,0,0,0,0,0,0,0,0,0],"id":4,"left_children":[1,3,5,7,9,11,13,15,17,19,21,23,25,27,29,31,33,35,37,39,41,43,-1,-1,45,47,49,51,-1,53,-1,55,57,59,61,63,65,67,69,71,73,75,77,79,81,83,85,87,-1,89,-1,-1,-1,-1,-1,-1,-1,-1,91,93,-1,95,97,99,-1,101,-1,-1,-1,-1,-1,103,105,107,109,111,113,115,117,119,-1,121,123,-1,125,-1,-1,127,-1,129,131,133,135,-1,-1,137,139,141,-1,-1,143,-1,-1,145,147,149,151,153,155,157,-1,-1,-1,-1,-1,159,-1,-1,-1,161,163,165,167,169,-1,171,-1,173,175,-1,177,179,181,183,-1,185,187,-1,-1,-1,-1,-1,-1,189,191,193,195,197,199,201,203,205,207,209,211,213,215,217,219,221,-1,-1,223,225,-1,227,229,231,233,-1,235,-1,-1,-1,-1,-1,237,239,241,-1,243,245,-1,247,249,251,253,-1,255,257,259,-1,-1,261,263,-1,-1,-1,265,-1,-1,267,269,271,273,275,277,279,281,-1,283,-1,285,-1,-1,287,-1,-1,-1,-1,-1,-1,-1,-1,289,291,-1,293,295,-1,297,299,301,303,305,307,309,-1,-1,-1,311,313,-1,-1,315,317,319,-1,-1,-1,-1,-1,-1,-1,-1,-1,-1,-1,-1,-1,-1,-1,-1,-1,-1,-1,-1,-1,-1,-1,-1,-1,-1,-1,-1,-1,-1,-1,-1,-1,-1,-1,-1,-1,-1,-1,-1,-1,-1,-1,-1,-1,-1,-1,-1,-1,-1,-1,-1,-1,-1,-1,-1,-1,-1,-1,-1,-1,-1,-1,-1,-1,-1,-1,-1,-1,-1,-1,-1,-1,-1],"loss_changes":[8.027594E0,1.3348293E0,1.7813878E0,1.0932914E0,1.0102569E0,5.580106E-1,2.0692873E-1,1.4821057E-1,1.470226E-1,4.571998E-1,2.6146454E-1,4.469943E-2,8.900535E-2,6.523943E-2,4.637575E-2,9.128831E-2,1.22406214E-1,1.3806677E-1,1.3590455E-2,2.6819873E-1,2.7182132E-1,1.1799936E-1,0E0,0E0,1.068666E-1,8.7071955E-2,1.4126405E-1,2.1363735E-2,0E0,1.8462306E-3,0E0,1.4582902E-2,6.949242E-2,1.7895088E-2,7.781735E-2,3.6655605E-2,8.01515E-2,1.0357618E-2,3.4458563E-4,1.8581724E-1,1.5964317E-1,4.666865E-2,4.6242338E-2,2.618602E-1,2.0344806E-1,3.8443178E-2,4.006386E-3,4.650849E-2,0E0,8.29059E-2,0E0,0E0,0E0,0E0,0E0,0E0,0E0,0E0,7.5334206E-2,1.2187581E-2,0E0,2.0789295E-2,1.5128054E-2,1.912266E-2,0E0,1.6119443E-3,0E0,0E0,0E0,0E0,0E0,1.0692382E-1,1.9560921E-1,1.3247553E-1,3.3910125E-2,6.3026324E-5,1.0441661E-2,7.1868055E-2,1.1277465E-2,1.1134827E-1,0E0,1.3850331E-1,1.3132998E-1,0E0,1.1500806E-2,0E0,0E0,2.357933E-2,0E0,9.33404E-2,4.151841E-2,5.2811697E-2,5.6916445E-2,0E0,0E0,1.1108495E-2,1.0682732E-2,1.0308735E-2,0E0,0E0,1.4157146E-2,0E0,0E0,7.52306E-2,1.3488257E-1,1.640933E-1,1.8944454E-1,1.2089614E-1,6.1912872E-2,1.0457487E-1,0E0,0E0,0E0,0E0,0E0,3.8107801E-3,0E0,0E0,0E0,8.411461E-2,5.667191E-2,8.744808E-2,8.296937E-2,3.0972704E-2,0E0,7.2197616E-3,0E0,2.0392046E-3,1.3739541E-2,0E0,1.02751315E-1,5.10964E-2,2.6150096E-2,2.1061694E-2,0E0,4.0165946E-2,1.184055E-2,0E0,0E0,0E0,0E0,0E0,0E0,3.1376258E-2,4.9707294E-4,8.867121E-2,5.0097704E-5,5.7875E-2,4.492976E-3,9.8563954E-2,5.0625622E-2,1.4534688E-1,1.3855815E-1,6.8657055E-2,4.7240485E-2,1.8148288E-2,2.2384804E-2,7.2093457E-3,1.4226567E-3,1.370197E-3,0E0,0E0,3.8609956E-3,3.8980544E-3,0E0,9.329997E-2,6.1880056E-2,6.9119215E-2,8.381653E-2,0E0,3.659696E-2,0E0,0E0,0E0,0E0,0E0,1.1787713E-2,2.8363438E-2,2.5738776E-2,0E0,2.4208508E-2,5.468134E-3,0E0,1.3742838E-3,3.3706237E-2,1.0206908E-2,4.076546E-2,0E0,2.4414125E-3,7.0340633E-3,4.557134E-3,0E0,0E0,6.871438E-2,8.9354984E-2,0E0,0E0,0E0,3.096572E-2,0E0,0E0,2.8376982E-2,8.135261E-2,1.3012127E-3,1.6807958E-2,7.3621035E-2,6.9494486E-2,2.4799359E-1,9.614742E-2,0E0,9.749219E-3,0E0,8.178528E-2,0E0,0E0,4.975699E-3,0E0,0E0,0E0,0E0,0E0,0E0,0E0,0E0,2.7013235E-3,6.8348646E-4,0E0,5.556334E-2,5.9093237E-2,0E0,3.7538873E-3,4.9050458E-2,3.6977887E-2,1.0357375E-1,3.0477136E-2,6.2955916E-2,2.5170617E-2,0E0,0E0,0E0,2.1591876E-4,1.6397089E-2,0E0,0E0,5.377829E-4,5.3492896E-3,4.6339333E-3,0E0,0E0,0E0,0E0,0E0,0E0,0E0,0E0,0E0,0E0,0E0,0E0,0E0,0E0,0E0,0E0,0E0,0E0,0E0,0E0,0E0,0E0,0E0,0E0,0E0,0E0,0E0,0E0,0E0,0E0,0E0,0E0,0E0,0E0,0E0,0E0,0E0,0E0,0E0,0E0,0E0,0E0,0E0,0E0,0E0,0E0,0E0,0E0,0E0,0E0,0E0,0E0,0E0,0E0,0E0,0E0,0E0,0E0,0E0,0E0,0E0,0E0,0E0,0E0,0E0,0E0,0E0,0E0,0E0,0E0,0E0,0E0,0E0,0E0],"parents":[2147483647,0,0,1,1,2,2,3,3,4,4,5,5,6,6,7,7,8,8,9,9,10,10,11,11,12,12,13,13,14,14,15,15,16,16,17,17,18,18,19,19,20,20,21,21,24,24,25,25,26,26,27,27,29,29,31,31,32,32,33,33,34,34,35,35,36,36,37,37,38,38,39,39,40,40,41,41,42,42,43,43,44,44,45,45,46,46,47,47,49,49,58,58,59,59,61,61,62,62,63,63,65,65,71,71,72,72,73,73,74,74,75,75,76,76,77,77,78,78,79,79,81,81,82,82,84,84,87,87,89,89,90,90,91,91,92,92,95,95,96,96,97,97,100,100,103,103,104,104,105,105,106,106,107,107,108,108,109,109,115,115,119,119,120,120,121,121,122,122,123,123,125,125,127,127,128,128,130,130,131,131,132,132,133,133,135,135,136,136,143,143,144,144,145,145,146,146,147,147,148,148,149,149,150,150,151,151,152,152,153,153,154,154,155,155,156,156,157,157,158,158,159,159,162,162,163,163,165,165,166,166,167,167,168,168,170,170,176,176,177,177,178,178,180,180,181,181,183,183,184,184,185,185,186,186,188,188,189,189,190,190,193,193,194,194,198,198,201,201,202,202,203,203,204,204,205,205,206,206,207,207,208,208,210,210,212,212,215,215,224,224,225,225,227,227,228,228,230,230,231,231,232,232,233,233,234,234,235,235,236,236,240,240,241,241,244,244,245,245,246,246],"right_children":[2,4,6,8,10,12,14,16,18,20,22,24,26,28,30,32,34,36,38,40,42,44,-1,-1,46,48,50,52,-1,54,-1,56,58,60,62,64,66,68,70,72,74,76,78,80,82,84,86,88,-1,90,-1,-1,-1,-1,-1,-1,-1,-1,92,94,-1,96,98,100,-1,102,-1,-1,-1,-1,-1,104,106,108,110,112,114,116,118,120,-1,122,124,-1,126,-1,-1,128,-1,130,132,134,136,-1,-1,138,140,142,-1,-1,144,-1,-1,146,148,150,152,154,156,158,-1,-1,-1,-1,-1,160,-1,-1,-1,162,164,166,168,170,-1,172,-1,174,176,-1,178,180,182,184,-1,186,188,-1,-1,-1,-1,-1,-1,190,192,194,196,198,200,202,204,206,208,210,212,214,216,218,220,222,-1,-1,224,226,-1,228,230,232,234,-1,236,-1,-1,-1,-1,-1,238,240,242,-1,244,246,-1,248,250,252,254,-1,256,258,260,-1,-1,262,264,-1,-1,-1,266,-1,-1,268,270,272,274,276,278,280,282,-1,284,-1,286,-1,-1,288,-1,-1,-1,-1,-1,-1,-1,-1,290,292,-1,294,296,-1,298,300,302,304,306,308,310,-1,-1,-1,312,314,-1,-1,316,318,320,-1,-1,-1,-1,-1,-1,-1,-1,-1,-1,-1,-1,-1,-1,-1,-1,-1,-1,-1,-1,-1,-1,-1,-1,-1,-1,-1,-1,-1,-1,-1,-1,-1,-1,-1,-1,-1,-1,-1,-1,-1,-1,-1,-1,-1,-1,-1,-1,-1,-1,-1,-1,-1,-1,-1,-1,-1,-1,-1,-1,-1,-1,-1,-1,-1,-1,-1,-1,-1,-1,-1,-1,-1,-1],"split_conditions":[6.839E5,1.964E3,1.129952E6,1.01053E5,1.47E2,1.996E3,2.011E3,1.3E2,1.72083E5,6.16228E5,2.02E3,1.967E3,2.003E3,1.485555E6,1.308302E6,1.93E3,3.4357E4,1.961E3,2.09E2,2.018E3,2.007E3,1.985E3,3.2918297E-2,4.8817158E-2,8.87429E5,1.51E2,2.017E3,2.007E3,6.0992487E-2,2.013E3,2.8142333E-2,8.177E4,2.6518E4,1.45E2,1.44E2,1.54E2,1.11478E5,1.961E3,2.2E2,1.15E2,3.3432E5,1.16E2,2.013E3,2.18957E5,3.57026E5,1.08E2,1.47E2,1.18E2,-6.0802936E-3,1.13E2,2.6576877E-2,4.0373687E-2,9.757089E-3,9.997607E-4,7.5395587E-3,9.142262E-3,-2.0077706E-3,-1.4412432E-2,3.0144E4,2.8223E4,-1.4377785E-2,1.962E3,6.6803E4,1.932E3,-2.0077706E-3,1.962E3,-1.514128E-2,2.6797587E-2,9.951719E-3,3.3452034E-3,1.2558587E-2,5.00875E5,1.99E3,1.12298E5,4.7912E5,1.997E3,2.002E3,1.19E2,6.52719E5,1.972E3,2.3925757E-2,2E3,1.69E2,-1.3334275E-3,1.99E3,3.4391474E-2,9.4800955E-3,7.57904E5,2.5145976E-2,9.2E1,7.57904E5,2.863E4,9.309E4,-5.2974387E-3,4.858923E-3,1.959E3,4.2285E4,1.75E2,1.0209846E-2,2.2480853E-2,1.05E2,1.0209846E-2,2.0648004E-3,4.66134E5,2.004E3,1.87927E5,5.1913E4,2.019E3,2.019E3,4.51479E5,2.6499987E-2,7.6238E-3,2.0648004E-3,2.869587E-2,1.015323E-2,2.01E3,-1.42877195E-2,8.274543E-3,-2.0077706E-3,1.71E2,1.983E3,1.87927E5,1.53E2,2.006E3,1.26826605E-2,7.0381E5,3.416586E-3,1.999E3,2E3,-1.0152817E-2,7.17585E5,7.3262E5,1.5E2,2.7007E4,1.2406769E-2,1.936E3,9.7222E4,1.3048783E-2,2.5648752E-3,2.785937E-2,6.1373473E-3,2.905655E-3,-4.5098304E-3,1E2,1.94E3,4.47368E5,1.99E3,5.17359E5,9.1E1,3.058E4,1.2E2,1.21E2,3.29592E5,2.6429E4,9.7E1,1.02E2,2.02E3,1.31E2,2.019E3,2.008E3,5.330404E-3,-1.4777279E-2,4.7175E4,1.5014E5,-8.3246E-3,6.355E4,1.989E3,1.15576E5,5.3054E4,-1.7616788E-2,2.008E3,7.586638E-3,2.147522E-2,3.3266544E-3,-1.3334275E-3,4.4355392E-3,2.001E3,2.01E3,2.015E3,4.277401E-3,2.006E3,1.020727E6,-6.0802936E-3,1.951E3,2.8057E4,6.7E1,7.1379E4,1.015323E-2,8.6E1,1.33351E5,1.95E3,4.5601847E-3,1.6276995E-2,9E1,1.04E2,-5.902982E-3,-2.0762457E-2,2.0414878E-2,1.999E3,-1.3690583E-2,-5.42778E-3,1.23E2,5.1679E4,1.983E3,3.22031E5,3.8746E4,3.0935E4,2.009E3,3.59809E5,-6.6782716E-3,1.25E2,1.1578989E-2,3.7605E4,-2.363229E-3,-1.9931154E-2,2.37696E5,7.066536E-3,1.8663645E-2,3.73981E-3,-9.797692E-3,-2.0077706E-3,1.6981602E-3,-2.0077706E-3,5.6176027E-3,1.966E3,1.52E2,2.2147656E-3,1.81E2,1.986E3,2.246356E-2,1.56E2,2.765E4,2.019E3,2.012E3,1.71E2,4.66134E5,4.63188E5,2.0119596E-2,3.416586E-3,-1.0152817E-2,2.011E3,2.004E3,2.0648004E-3,1.9955398E-3,1.37E2,8.87429E5,2.011E3,2.6903271E-3,8.002353E-3,-8.331518E-3,3.3958722E-3,-6.6559314E-4,-1.2093365E-2,-1.7051622E-3,-8.284712E-3,-2.0077706E-3,2.5648752E-3,4.2423885E-3,1.4907765E-2,2.186378E-3,-3.9827824E-3,-5.4370663E-3,-1.0169162E-2,1.6025687E-2,-6.9306134E-3,8.535529E-3,-5.8813733E-3,1.9328212E-2,2.758491E-3,-1.1198326E-2,-1.6626358E-3,-6.1944486E-3,-7.8580383E-4,1.3846308E-2,5.3064963E-3,-1.8493136E-2,-1.6875664E-3,-7.7425004E-3,4.0857997E-3,-1.3741632E-2,-3.3243902E-3,4.7360994E-3,-6.0928776E-3,7.9113245E-3,2.0822227E-2,3.92642E-3,-1.2221976E-2,-7.3562386E-3,-7.9317094E-4,2.2204558E-3,-2.535224E-3,3.3254623E-3,1.23227015E-2,6.6833566E-3,-8.115864E-3,1.9942285E-3,-1.6323447E-2,-2.9520274E-3,2.3850799E-3,-6.880021E-3,1.3285614E-2,-1.07715605E-2,5.950236E-3,-1.2269497E-2,7.4463426E-3,1.4134432E-2,5.9635304E-3,-9.552415E-3,1.0943762E-2,5.3087874E-6,-1.2394471E-2,1.5481949E-3,6.3258647E-3,7.6238E-3,2.4142252E-2,-1.5500753E-2,-4.1255476E-3,5.838275E-3,3.7352245E-5,1.26826605E-2,2.0648004E-3],"split_indices":[2,0,2,2,1,0,0,1,2,2,0,0,0,2,2,0,2,0,1,0,0,0,0,0,2,1,0,0,0,0,0,2,2,1,1,1,2,0,1,1,2,1,0,2,2,1,1,1,0,1,0,0,0,0,0,0,0,0,2,2,0,0,2,0,0,0,0,0,0,0,0,2,0,2,2,0,0,1,2,0,0,0,1,0,0,0,0,2,0,1,2,2,2,0,0,0,2,1,0,0,1,0,0,2,0,2,2,0,0,2,0,0,0,0,0,0,0,0,0,1,0,2,1,0,0,2,0,0,0,0,2,2,1,2,0,0,2,0,0,0,0,0,0,1,0,2,0,2,1,2,1,1,2,2,1,1,0,1,0,0,0,0,2,2,0,2,0,2,2,0,0,0,0,0,0,0,0,0,0,0,0,2,0,0,2,1,2,0,1,2,0,0,0,1,1,0,0,0,0,0,0,1,2,0,2,2,2,0,2,0,1,0,2,0,0,2,0,0,0,0,0,0,0,0,0,1,0,1,0,0,1,2,0,0,1,2,2,0,0,0,0,0,0,0,1,2,0,0,0,0,0,0,0,0,0,0,0,0,0,0,0,0,0,0,0,0,0,0,0,0,0,0,0,0,0,0,0,0,0,0,0,0,0,0,0,0,0,0,0,0,0,0,0,0,0,0,0,0,0,0,0,0,0,0,0,0,0,0,0,0,0,0,0,0,0,0,0,0,0,0,0],"split_type":[0,0,0,0,0,0,0,0,0,0,0,0,0,0,0,0,0,0,0,0,0,0,0,0,0,0,0,0,0,0,0,0,0,0,0,0,0,0,0,0,0,0,0,0,0,0,0,0,0,0,0,0,0,0,0,0,0,0,0,0,0,0,0,0,0,0,0,0,0,0,0,0,0,0,0,0,0,0,0,0,0,0,0,0,0,0,0,0,0,0,0,0,0,0,0,0,0,0,0,0,0,0,0,0,0,0,0,0,0,0,0,0,0,0,0,0,0,0,0,0,0,0,0,0,0,0,0,0,0,0,0,0,0,0,0,0,0,0,0,0,0,0,0,0,0,0,0,0,0,0,0,0,0,0,0,0,0,0,0,0,0,0,0,0,0,0,0,0,0,0,0,0,0,0,0,0,0,0,0,0,0,0,0,0,0,0,0,0,0,0,0,0,0,0,0,0,0,0,0,0,0,0,0,0,0,0,0,0,0,0,0,0,0,0,0,0,0,0,0,0,0,0,0,0,0,0,0,0,0,0,0,0,0,0,0,0,0,0,0,0,0,0,0,0,0,0,0,0,0,0,0,0,0,0,0,0,0,0,0,0,0,0,0,0,0,0,0,0,0,0,0,0,0,0,0,0,0,0,0,0,0,0,0,0,0,0,0,0,0,0,0,0,0,0,0,0,0,0,0,0,0,0,0,0,0,0,0,0,0,0,0,0,0,0,0,0,0,0,0,0,0],"sum_hessian":[1E3,8.93E2,1.07E2,1.59E2,7.34E2,7.8E1,2.9E1,1.1E2,4.9E1,6.15E2,1.19E2,2.4E1,5.4E1,2.4E1,5E0,9E1,2E1,2.8E1,2.1E1,5.94E2,2.1E1,1.17E2,2E0,2E0,2.2E1,1.7E1,3.7E1,1.3E1,1.1E1,2E0,3E0,8E0,8.2E1,4E0,1.6E1,2.4E1,4E0,1.8E1,3E0,5.57E2,3.7E1,9E0,1.2E1,2.7E1,9E1,1E1,1.2E1,1.6E1,1E0,3.4E1,3E0,1.2E1,1E0,1E0,1E0,7E0,1E0,4E0,7.8E1,3E0,1E0,9E0,7E0,2.3E1,1E0,2E0,2E0,1.6E1,2E0,1E0,2E0,2.88E2,2.69E2,3E1,7E0,3E0,6E0,8E0,4E0,2E1,7E0,7E1,2E1,1E0,9E0,1.1E1,1E0,8E0,8E0,1.3E1,2.1E1,1.6E1,6.2E1,2E0,1E0,6E0,3E0,6E0,1E0,5E0,1.8E1,1E0,1E0,2.76E2,1.2E1,5.8E1,2.11E2,1.9E1,1.1E1,6E0,1E0,2E0,1E0,4E0,2E0,4E0,4E0,3E0,1E0,9E0,1.1E1,2.3E1,4.7E1,1.8E1,2E0,8E0,1E0,2E0,6E0,1E0,1.2E1,8E0,1.3E1,1.2E1,4E0,5.7E1,5E0,4E0,2E0,2E0,1E0,4E0,2E0,8E0,1E1,2.69E2,7E0,6E0,6E0,4.3E1,1.5E1,4.4E1,1.67E2,7E0,1.2E1,5E0,6E0,4E0,2E0,2E0,2E0,4E0,5E0,1E1,1E0,1.8E1,5E0,1E1,3.7E1,4E0,1.4E1,2E0,6E0,1E0,1E0,2E0,4E0,3E0,9E0,4E0,4E0,1.2E1,1E0,4E0,8E0,8E0,4.9E1,2E0,3E0,5E0,3E0,1E0,9E0,2.64E2,5E0,1E0,6E0,2E0,4E0,2E0,4E0,4E0,3.9E1,2E0,1.3E1,1E1,3.4E1,1.08E2,5.9E1,1E0,6E0,1E0,1.1E1,1E0,4E0,5E0,1E0,3E0,1E0,1E0,1E0,1E0,1E0,2E0,3E0,9E0,1E0,9E0,9E0,1E0,4E0,4E0,6E0,1E1,2.7E1,4E0,1E1,3E0,1E0,1E0,2E0,8E0,1E0,1E0,3E0,9E0,3E0,3E0,1E0,4E0,4E0,1E0,7E0,3.7E1,1.2E1,1E0,2E0,2E0,3E0,2E0,1E0,4E1,2.24E2,2E0,3E0,2E0,2E0,1E0,3E0,1.3E1,2.6E1,1E0,1E0,7E0,6E0,5E0,5E0,5E0,2.9E1,7.4E1,3.4E1,9E0,5E1,3E0,3E0,5E0,6E0,3E0,2E0,2E0,1E0,1E0,8E0,6E0,3E0,2E0,7E0,1E0,3E0,1E0,3E0,5E0,1E0,3E0,7E0,1.8E1,9E0,2E0,2E0,2E0,8E0,1E0,1E0,2E0,6E0,2E0,1E0,7E0,2E0,2E0,1E0],"tree_param":{"num_deleted":"0","num_feature":"3","num_nodes":"321","size_leaf_vector":"1"}},{"base_weights":[2.595659E-3,-2.5745127E-2,2.3717035E-1,4.9465492E-2,-4.208248E-2,1.6219269E-1,4.2670587E-1,-1.2390077E-3,1.6104017E-1,-5.6836106E-2,3.400349E-2,2.7688378E-1,1.0711143E-1,3.1834626E-1,5.278064E-2,-1.734555E-2,6.8615004E-2,1.1142514E-1,2.191218E-1,-6.154989E-2,7.32338E-2,2.6768692E-2,3.0723764E-2,4.556265E-2,2.4153109E-1,1.62103E-1,7.824407E-2,4.1042022E-2,1.9090049E-2,6.991519E-2,-2.6598575E-2,-6.583729E-2,1.0412362E-1,1.3688265E-1,-3.814745E-2,1.8101613E-1,3.1247789E-2,-6.927022E-2,-1.02465665E-2,1.8569985E-1,-1.8911911E-2,7.84171E-2,1.0582714E-2,1.4785653E-1,3.0221483E-2,1.7843409E-1,-5.776286E-3,5.685516E-2,2.4583602E-2,8.342302E-3,-1.9073725E-3,-1.3259439E-1,-1.9553287E-2,-1.4002085E-2,-1.3658905E-2,1.5687303E-1,2.51714E-2,1.4417557E-1,-1.9073725E-3,7.7739395E-2,-1.4131849E-2,1.9670987E-1,3.697745E-2,-2.4885807E-2,-7.628011E-2,-8.7231785E-2,9.159841E-3,6.317449E-3,2.2918579E-1,-5.7096165E-2,5.360212E-2,2.1385647E-2,2.1832252E-2,3.3739794E-2,-6.8214215E-2,-1.2667656E-3,1.6517572E-1,2.8938724E-2,1.339879E-1,1.0553971E-1,1.5064764E-2,-3.750372E-3,-1.4699114E-2,1.9980023E-2,-4.0464427E-2,-4.9442608E-2,4.6159746E-3,9.6008435E-2,2.2416782E-1,1.0549E-3,9.699345E-3,2.060744E-2,1.1704038E-1,9.699345E-3,1.961565E-3,2.4918829E-1,1.40304E-2,-3.804922E-3,9.351539E-3,-5.4422967E-2,1.1335384E-1,-8.7424606E-2,-5.0505843E-2,-1.091313E-1,4.4043224E-2,1.1218405E-1,-7.5611896E-3,2.6643047E-2,9.071604E-3,2.8673744E-2,-1.3144684E-2,7.6539516E-3,-1.9073725E-3,-5.084591E-2,7.979647E-2,-2.2889912E-2,6.1351735E-2,-9.408487E-2,1.1837133E-2,1.7631584E-1,3.2457353E-3,1.6978855E-1,3.558903E-2,-9.645176E-3,1.2543592E-1,-5.7823386E-2,5.0432783E-2,-3.1668E-3,1.053795E-2,-5.153427E-2,5.2993376E-2,-5.8516264E-3,-1.564765E-3,1.3129544E-1,3.6719323E-3,2.6002059E-2,5.830479E-3,2.6731873E-3,-4.2091687E-3,7.288E-2,1.4253157E-1,2.7450386E-2,4.8647407E-3,-1.5085245E-2,-4.291388E-2,1.7548871E-1,7.716451E-2,-4.402081E-2,-9.296664E-2,6.125859E-3,-7.475611E-2,1.5558004E-3,-1.3946013E-1,6.7132E-3,-1.0671616E-4,1.809129E-1,-8.5577965E-3,-2.1288056E-2,1.3671045E-2,5.0942898E-2,-3.1533241E-3,-1.3595104E-2,2.8549353E-2,1.0142955E-1,-7.9083685E-3,1.9929707E-2,-9.6470356E-2,-1.0775739E-2,8.061622E-2,-1.6207447E-2,-6.514934E-2,7.080873E-3,1.963452E-2,3.1603337E-3,1.8163098E-2,-1.2667656E-3,5.0820112E-2,-3.3219338E-3,1.7255896E-1,2.400303E-3,-9.535456E-2,6.319882E-2,-5.776286E-3,2.7298182E-2,-6.3700914E-2,-6.831243E-2,-1.7907366E-2,9.476376E-3,8.417249E-3,3.7530423E-3,1.5004031E-2,1.1172906E-1,-3.6135912E-3,1.0704592E-1,2.01478E-2,-1.4259112E-2,-3.442113E-2,4.0379525E-3,2.0706527E-2,5.0387323E-2,1.2284883E-2,-9.901014E-2,1.3285411E-2,-9.608414E-2,-4.0185228E-2,-1.8996544E-2,1.3445166E-1,-9.2970535E-2,-2.2141494E-2,-7.125918E-3,1.1000037E-2,-3.4444334E-4,-1.5271726E-2,-8.789539E-3,2.4036352E-1,7.3936414E-3,-9.966649E-2,1.6132593E-3,6.0281754E-3,-1.9073725E-3,1.4343739E-3,5.2430946E-3,3.5008192E-3,1.0736446E-1,2.1040202E-3,-7.089653E-2,5.6113165E-2,-1.5421403E-2,-4.1896183E-2,7.21695E-2,-6.848294E-2,8.146546E-3,1.062073E-1,-1.104663E-1,-1.1688709E-2,6.1365766E-3,9.5915794E-4,-9.645176E-3,4.4073462E-2,1.8589172E-1,1.961565E-3,-1.281017E-1,1.781702E-3,7.4854374E-2,1.826024E-2,-4.2965813E-3,6.3142343E-3,-9.090408E-3,1.1939049E-3,-4.8833652E-3,-1.1820972E-2,7.4833236E-4,-1.388917E-2,-1.9073725E-3,2.3938816E-3,1.8526793E-3,1.2666416E-2,2.0406088E-3,-3.7836314E-3,1.2479226E-2,5.3664926E-3,7.916785E-3,-4.818949E-3,8.073807E-3,-1.4793873E-5,-1.2301105E-2,-7.205391E-4,1.37251085E-2,-7.046548E-3,-1.0637141E-2,-7.0980564E-3,2.6381451E-3,-1.3904926E-2,-3.165969E-3,9.022355E-3,7.777767E-3,1.8409109E-2,-6.6778236E-3,-1.2860151E-2,6.671851E-3,-5.213542E-3,1.2892604E-2,3.0882565E-2,-1.3174971E-3,1.9066274E-2,2.7769208E-3,-1.3694616E-2,2.072414E-3,-2.4084568E-3,4.495573E-3,1.1734718E-2,1.8612862E-3,-1.3677375E-2,1.4248483E-2,-2.5935855E-3,5.7427883E-3,-7.324658E-3,-6.5360307E-3,1.2289203E-2,-9.8739145E-3,5.652714E-3,-1.1349285E-2,6.7947926E-3,1.2795376E-2,5.426831E-3,-1.3974926E-2,4.7257184E-3,7.451E-3,-1.1651493E-2,6.0095787E-3,1.8700758E-3,1.304853E-2,2.716783E-2,-1.4467383E-2,-3.9192676E-3,2.353897E-3,1.05141485E-2,5.8329343E-3,-1.4539242E-3],"categories":[],"categories_nodes":[],"categories_segments":[],"categories_sizes":[],"default_left":[0,0,0,0,0,0,0,0,0,0,0,0,0,0,0,0,0,0,0,0,0,0,0,0,0,0,0,0,0,0,0,0,0,0,0,0,0,0,0,0,0,0,0,0,0,0,0,0,0,0,0,0,0,0,0,0,0,0,0,0,0,0,0,0,0,0,0,0,0,0,0,0,0,0,0,0,0,0,0,0,0,0,0,0,0,0,0,0,0,0,0,0,0,0,0,0,0,0,0,0,0,0,0,0,0,0,0,0,0,0,0,0,0,0,0,0,0,0,0,0,0,0,0,0,0,0,0,0,0,0,0,0,0,0,0,0,0,0,0,0,0,0,0,0,0,0,0,0,0,0,0,0,0,0,0,0,0,0,0,0,0,0,0,0,0,0,0,0,0,0,0,0,0,0,0,0,0,0,0,0,0,0,0,0,0,0,0,0,0,0,0,0,0,0,0,0,0,0,0,0,0,0,0,0,0,0,0,0,0,0,0,0,0,0,0,0,0,0,0,0,0,0,0,0,0,0,0,0,0,0,0,0,0,0,0,0,0,0,0,0,0,0,0,0,0,0,0,0,0,0,0,0,0,0,0,0,0,0,0,0,0,0,0,0,0,0,0,0,0,0,0,0,0,0,0,0,0,0,0,0,0,0,0,0,0,0,0,0,0,0,0,0,0,0,0,0,0,0,0,0,0,0,0,0,0,0,0,0,0,0,0,0,0,0,0,0,0,0,0],"id":5,"left_children":[1,3,5,7,9,11,13,15,17,19,21,23,25,27,-1,29,31,33,35,37,39,41,-1,-1,43,45,47,-1,-1,49,51,53,55,57,59,61,-1,63,65,67,69,71,73,75,-1,77,-1,79,-1,-1,-1,81,83,85,-1,87,89,91,-1,93,-1,95,97,99,101,103,105,-1,107,109,111,113,-1,115,117,-1,119,-1,121,123,125,-1,-1,127,129,131,-1,133,135,137,-1,-1,139,-1,-1,141,-1,-1,-1,143,145,147,149,151,153,155,157,-1,-1,159,-1,-1,-1,161,163,165,167,169,-1,171,-1,173,175,-1,177,179,181,183,-1,185,187,-1,-1,189,-1,-1,-1,-1,-1,191,193,-1,-1,-1,195,197,199,201,203,205,207,209,211,-1,-1,213,-1,215,-1,217,219,-1,221,223,-1,225,227,229,231,-1,233,-1,-1,-1,-1,-1,235,237,239,-1,241,243,-1,245,247,249,251,-1,253,-1,-1,255,257,259,-1,-1,261,-1,-1,263,-1,265,267,269,271,273,275,277,279,-1,-1,-1,-1,-1,281,283,285,-1,-1,-1,-1,-1,287,289,-1,291,293,-1,295,297,299,301,303,305,307,-1,-1,-1,309,311,-1,313,-1,315,317,-1,-1,-1,-1,-1,-1,-1,-1,-1,-1,-1,-1,-1,-1,-1,-1,-1,-1,-1,-1,-1,-1,-1,-1,-1,-1,-1,-1,-1,-1,-1,-1,-1,-1,-1,-1,-1,-1,-1,-1,-1,-1,-1,-1,-1,-1,-1,-1,-1,-1,-1,-1,-1,-1,-1,-1,-1,-1,-1,-1,-1,-1,-1,-1,-1,-1,-1,-1,-1,-1,-1,-1,-1,-1],"loss_changes":[6.660785E0,1.1005772E0,1.4655714E0,9.053737E-1,8.270024E-1,4.694116E-1,1.6063166E-1,1.26077E-1,1.1967039E-1,3.8219047E-1,2.289908E-1,4.7927976E-2,7.4626744E-2,1.2113607E-1,0E0,7.53354E-2,1.0711373E-1,1.1564636E-1,2.169919E-2,2.3495698E-1,2.3150373E-1,9.781577E-2,0E0,0E0,8.605957E-2,7.4938595E-2,1.22238085E-1,0E0,0E0,1.2409613E-2,5.9389338E-2,1.6424628E-2,6.6850916E-2,3.1184405E-2,7.076684E-2,3.3415258E-2,0E0,1.5895581E-1,1.1882554E-1,3.8802624E-2,3.90561E-2,2.187433E-1,1.6834985E-1,3.267403E-2,0E0,4.5060158E-2,0E0,6.961919E-2,0E0,0E0,0E0,1.3322607E-3,6.611672E-2,1.0810925E-2,0E0,1.9436717E-2,1.3754453E-2,1.6192228E-2,0E0,1.454765E-3,0E0,1.2399316E-2,1.628375E-2,3.001599E-1,1.2369418E-1,5.0804228E-2,1.11099176E-1,0E0,1.193133E-2,6.116253E-2,9.794866E-3,9.2658535E-2,0E0,1.1242391E-1,1.1250584E-1,0E0,9.06226E-3,0E0,4.3275774E-2,7.6400355E-2,5.4474384E-2,0E0,0E0,5.5682056E-2,5.652824E-2,4.289672E-6,0E0,9.823874E-3,8.626148E-3,8.880306E-3,0E0,0E0,1.1000603E-2,0E0,0E0,2.2183776E-2,0E0,0E0,0E0,6.0115278E-2,1.5690565E-2,7.047653E-2,1.8860474E-1,4.721512E-2,3.1962716E-3,1.3780978E-1,1.1381256E-1,0E0,0E0,3.7044482E-3,0E0,0E0,0E0,7.1450755E-2,4.926622E-2,7.75391E-2,6.756465E-2,2.681993E-2,0E0,5.1161945E-3,0E0,1.0624349E-2,4.31878E-3,0E0,9.1585144E-2,2.3786087E-2,2.2987768E-2,4.4154845E-2,0E0,2.5293991E-2,1.03741195E-2,0E0,0E0,1.3993755E-3,0E0,0E0,0E0,0E0,0E0,2.7149081E-2,1.4418811E-3,0E0,0E0,0E0,4.1651197E-2,8.70394E-3,6.0429573E-3,1.1791092E-1,4.122448E-2,1.3795593E-1,8.9942575E-2,3.9424095E-2,1.930894E-2,0E0,0E0,1.3299258E-1,0E0,1.1763428E-1,0E0,2.764631E-6,1.1092693E-3,0E0,3.4056427E-3,2.989173E-3,0E0,5.656074E-2,2.190084E-2,5.7594296E-2,6.960873E-2,0E0,3.5048895E-2,0E0,0E0,0E0,0E0,0E0,1.1505326E-3,2.6320588E-2,1.8784344E-2,0E0,2.0812627E-2,5.4423325E-3,0E0,4.300982E-2,1.7546479E-2,2.4357483E-2,5.3261258E-2,0E0,2.1634141E-3,0E0,0E0,6.00522E-3,4.060166E-3,1.8288866E-3,0E0,0E0,8.51396E-2,0E0,0E0,1.2282208E-2,0E0,4.097821E-2,2.0693395E-1,5.90775E-2,1.1554616E-1,5.2646972E-2,5.37467E-3,5.7673454E-2,7.277517E-2,0E0,0E0,0E0,0E0,0E0,5.959809E-3,1.4952603E-1,7.031351E-2,0E0,0E0,0E0,0E0,0E0,2.3995796E-3,9.5465034E-4,0E0,3.20289E-2,8.873598E-2,0E0,2.2889484E-2,4.2911556E-2,3.2057755E-2,8.772784E-2,2.4681836E-2,4.3553032E-2,8.09686E-2,0E0,0E0,0E0,5.022823E-4,1.2081265E-2,0E0,2.2349507E-4,0E0,1.3067026E-2,6.1050477E-3,0E0,0E0,0E0,0E0,0E0,0E0,0E0,0E0,0E0,0E0,0E0,0E0,0E0,0E0,0E0,0E0,0E0,0E0,0E0,0E0,0E0,0E0,0E0,0E0,0E0,0E0,0E0,0E0,0E0,0E0,0E0,0E0,0E0,0E0,0E0,0E0,0E0,0E0,0E0,0E0,0E0,0E0,0E0,0E0,0E0,0E0,0E0,0E0,0E0,0E0,0E0,0E0,0E0,0E0,0E0,0E0,0E0,0E0,0E0,0E0,0E0,0E0,0E0,0E0,0E0,0E0,0E0,0E0,0E0,0E0,0E0,0E0,0E0,0E0],"parents":[2147483647,0,0,1,1,2,2,3,3,4,4,5,5,6,6,7,7,8,8,9,9,10,10,11,11,12,12,13,13,15,15,16,16,17,17,18,18,19,19,20,20,21,21,24,24,25,25,26,26,29,29,30,30,31,31,32,32,33,33,34,34,35,35,37,37,38,38,39,39,40,40,41,41,42,42,43,43,45,45,47,47,51,51,52,52,53,53,55,55,56,56,57,57,59,59,61,61,62,62,63,63,64,64,65,65,66,66,68,68,69,69,70,70,71,71,73,73,74,74,76,76,78,78,79,79,80,80,83,83,84,84,85,85,87,87,88,88,89,89,92,92,95,95,99,99,100,100,101,101,102,102,103,103,104,104,105,105,106,106,109,109,113,113,114,114,115,115,116,116,117,117,119,119,121,121,122,122,124,124,125,125,126,126,127,127,129,129,130,130,133,133,139,139,140,140,144,144,145,145,146,146,147,147,148,148,149,149,150,150,151,151,152,152,155,155,157,157,159,159,160,160,162,162,163,163,165,165,166,166,167,167,168,168,170,170,176,176,177,177,178,178,180,180,181,181,183,183,184,184,185,185,186,186,188,188,191,191,192,192,193,193,196,196,199,199,201,201,202,202,203,203,204,204,205,205,206,206,207,207,208,208,214,214,215,215,216,216,222,222,223,223,225,225,226,226,228,228,229,229,230,230,231,231,232,232,233,233,234,234,238,238,239,239,241,241,243,243,244,244],"right_children":[2,4,6,8,10,12,14,16,18,20,22,24,26,28,-1,30,32,34,36,38,40,42,-1,-1,44,46,48,-1,-1,50,52,54,56,58,60,62,-1,64,66,68,70,72,74,76,-1,78,-1,80,-1,-1,-1,82,84,86,-1,88,90,92,-1,94,-1,96,98,100,102,104,106,-1,108,110,112,114,-1,116,118,-1,120,-1,122,124,126,-1,-1,128,130,132,-1,134,136,138,-1,-1,140,-1,-1,142,-1,-1,-1,144,146,148,150,152,154,156,158,-1,-1,160,-1,-1,-1,162,164,166,168,170,-1,172,-1,174,176,-1,178,180,182,184,-1,186,188,-1,-1,190,-1,-1,-1,-1,-1,192,194,-1,-1,-1,196,198,200,202,204,206,208,210,212,-1,-1,214,-1,216,-1,218,220,-1,222,224,-1,226,228,230,232,-1,234,-1,-1,-1,-1,-1,236,238,240,-1,242,244,-1,246,248,250,252,-1,254,-1,-1,256,258,260,-1,-1,262,-1,-1,264,-1,266,268,270,272,274,276,278,280,-1,-1,-1,-1,-1,282,284,286,-1,-1,-1,-1,-1,288,290,-1,292,294,-1,296,298,300,302,304,306,308,-1,-1,-1,310,312,-1,314,-1,316,318,-1,-1,-1,-1,-1,-1,-1,-1,-1,-1,-1,-1,-1,-1,-1,-1,-1,-1,-1,-1,-1,-1,-1,-1,-1,-1,-1,-1,-1,-1,-1,-1,-1,-1,-1,-1,-1,-1,-1,-1,-1,-1,-1,-1,-1,-1,-1,-1,-1,-1,-1,-1,-1,-1,-1,-1,-1,-1,-1,-1,-1,-1,-1,-1,-1,-1,-1,-1,-1,-1,-1,-1,-1,-1],"split_conditions":[6.839E5,1.964E3,1.129952E6,1.01053E5,1.47E2,1.996E3,1.485555E6,1.3E2,1.72083E5,6.16228E5,2.02E3,1.967E3,2.003E3,2E3,5.278064E-2,1.93E3,3.4357E4,1.961E3,4.04182E5,2.016E3,2.007E3,1.985E3,3.0723764E-2,4.556265E-2,8.87429E5,1.51E2,2.017E3,4.1042022E-2,1.9090049E-2,8.177E4,2.6518E4,1.45E2,1.44E2,1.54E2,1.11478E5,3.69007E5,3.1247789E-2,1.977E3,1.04E2,1.16E2,2.013E3,2.18957E5,3.57026E5,1.08E2,3.0221483E-2,7.3262E5,-5.776286E-3,1.17E2,2.4583602E-2,8.342302E-3,-1.9073725E-3,1.933E3,3.4677E4,2.8223E4,-1.3658905E-2,1.962E3,6.6803E4,1.932E3,-1.9073725E-3,1.962E3,-1.4131849E-2,1.955E3,1.94E3,1.98089E5,1.25E2,2.02E3,1.07E2,6.317449E-3,1.26E2,1.19E2,6.52719E5,1.972E3,2.1832252E-2,2E3,1.69E2,-1.2667656E-3,1.99E3,2.8938724E-2,2.001E3,9.2E1,7.57904E5,-3.750372E-3,-1.4699114E-2,1.11E2,9.309E4,1.949E3,4.6159746E-3,1.954E3,4.2285E4,1.75E2,9.699345E-3,2.060744E-2,1.05E2,9.699345E-3,1.961565E-3,2.09E2,1.40304E-2,-3.804922E-3,9.351539E-3,1.966E3,1.966E3,9E1,6.5659E4,9.7E1,1.01E2,3.92449E5,1.39E2,2.6643047E-2,9.071604E-3,1.12E2,-1.3144684E-2,7.6539516E-3,-1.9073725E-3,1.71E2,1.983E3,1.996E3,1.53E2,2.006E3,1.1837133E-2,7.0381E5,3.2457353E-3,7.40086E5,7.57904E5,-9.645176E-3,7.17585E5,2.006E3,1.5E2,1E2,1.053795E-2,1.955E3,9.7222E4,-5.8516264E-3,-1.564765E-3,1.32E2,3.6719323E-3,2.6002059E-2,5.830479E-3,2.6731873E-3,-4.2091687E-3,1E2,1.955E3,2.7450386E-2,4.8647407E-3,-1.5085245E-2,2.7007E4,2.00876E5,1.26E2,8.6E1,5.00875E5,1.42E2,3.71379E5,2.018E3,5.5163E4,6.7132E-3,-1.0671616E-4,2.5344E4,-8.5577965E-3,1.33E2,1.3671045E-2,2.008E3,2.01E3,-1.3595104E-2,4.7175E4,1.5014E5,-7.9083685E-3,1.988E3,1.997E3,1.15576E5,5.3054E4,-1.6207447E-2,5.17359E5,7.080873E-3,1.963452E-2,3.1603337E-3,1.8163098E-2,-1.2667656E-3,2.002E3,2.01E3,2.015E3,2.400303E-3,2.015E3,2.015E3,-5.776286E-3,9.1E1,3.1572E4,1.951E3,8.2781E4,9.476376E-3,8.6E1,3.7530423E-3,1.5004031E-2,8.1E1,1.95E3,1.951E3,2.01478E-2,-1.4259112E-2,3.058E4,4.0379525E-3,2.0706527E-2,1.21E2,1.2284883E-2,1.93674E5,1.998E3,1.15E2,1.16E2,6.3122E4,5.1284E4,2.0315E5,1.998E3,-7.125918E-3,1.1000037E-2,-3.4444334E-4,-1.5271726E-2,-8.789539E-3,1.42863E5,1.31E2,4.3542E4,1.6132593E-3,6.0281754E-3,-1.9073725E-3,1.4343739E-3,5.2430946E-3,1.966E3,3.2236E4,2.1040202E-3,1.986E3,1.72E2,-1.5421403E-2,5.9556E4,2.765E4,2.019E3,2.012E3,1.71E2,2.016E3,1.59E2,6.1365766E-3,9.5915794E-4,-9.645176E-3,1E2,2.011E3,1.961565E-3,1.37E2,1.781702E-3,1.27E2,1.21E2,-4.2965813E-3,6.3142343E-3,-9.090408E-3,1.1939049E-3,-4.8833652E-3,-1.1820972E-2,7.4833236E-4,-1.388917E-2,-1.9073725E-3,2.3938816E-3,1.8526793E-3,1.2666416E-2,2.0406088E-3,-3.7836314E-3,1.2479226E-2,5.3664926E-3,7.916785E-3,-4.818949E-3,8.073807E-3,-1.4793873E-5,-1.2301105E-2,-7.205391E-4,1.37251085E-2,-7.046548E-3,-1.0637141E-2,-7.0980564E-3,2.6381451E-3,-1.3904926E-2,-3.165969E-3,9.022355E-3,7.777767E-3,1.8409109E-2,-6.6778236E-3,-1.2860151E-2,6.671851E-3,-5.213542E-3,1.2892604E-2,3.0882565E-2,-1.3174971E-3,1.9066274E-2,2.7769208E-3,-1.3694616E-2,2.072414E-3,-2.4084568E-3,4.495573E-3,1.1734718E-2,1.8612862E-3,-1.3677375E-2,1.4248483E-2,-2.5935855E-3,5.7427883E-3,-7.324658E-3,-6.5360307E-3,1.2289203E-2,-9.8739145E-3,5.652714E-3,-1.1349285E-2,6.7947926E-3,1.2795376E-2,5.426831E-3,-1.3974926E-2,4.7257184E-3,7.451E-3,-1.1651493E-2,6.0095787E-3,1.8700758E-3,1.304853E-2,2.716783E-2,-1.4467383E-2,-3.9192676E-3,2.353897E-3,1.05141485E-2,5.8329343E-3,-1.4539242E-3],"split_indices":[2,0,2,2,1,0,2,1,2,2,0,0,0,0,0,0,2,0,2,0,0,0,0,0,2,1,0,0,0,2,2,1,1,1,2,2,0,0,1,1,0,2,2,1,0,2,0,1,0,0,0,0,2,2,0,0,2,0,0,0,0,0,0,2,1,0,1,0,1,1,2,0,0,0,1,0,0,0,0,1,2,0,0,1,2,0,0,0,2,1,0,0,1,0,0,1,0,0,0,0,0,1,2,1,1,2,1,0,0,1,0,0,0,1,0,0,1,0,0,2,0,2,2,0,2,0,1,1,0,0,2,0,0,1,0,0,0,0,0,1,0,0,0,0,2,2,1,1,2,1,2,0,2,0,0,2,0,1,0,0,0,0,2,2,0,0,0,2,2,0,2,0,0,0,0,0,0,0,0,0,0,0,0,1,2,0,2,0,1,0,0,1,0,0,0,0,2,0,0,1,0,2,0,1,1,2,2,2,0,0,0,0,0,0,2,1,2,0,0,0,0,0,0,2,0,0,1,0,2,2,0,0,1,0,1,0,0,0,1,0,0,1,0,1,1,0,0,0,0,0,0,0,0,0,0,0,0,0,0,0,0,0,0,0,0,0,0,0,0,0,0,0,0,0,0,0,0,0,0,0,0,0,0,0,0,0,0,0,0,0,0,0,0,0,0,0,0,0,0,0,0,0,0,0,0,0,0,0,0,0,0,0,0,0,0,0,0,0,0],"split_type":[0,0,0,0,0,0,0,0,0,0,0,0,0,0,0,0,0,0,0,0,0,0,0,0,0,0,0,0,0,0,0,0,0,0,0,0,0,0,0,0,0,0,0,0,0,0,0,0,0,0,0,0,0,0,0,0,0,0,0,0,0,0,0,0,0,0,0,0,0,0,0,0,0,0,0,0,0,0,0,0,0,0,0,0,0,0,0,0,0,0,0,0,0,0,0,0,0,0,0,0,0,0,0,0,0,0,0,0,0,0,0,0,0,0,0,0,0,0,0,0,0,0,0,0,0,0,0,0,0,0,0,0,0,0,0,0,0,0,0,0,0,0,0,0,0,0,0,0,0,0,0,0,0,0,0,0,0,0,0,0,0,0,0,0,0,0,0,0,0,0,0,0,0,0,0,0,0,0,0,0,0,0,0,0,0,0,0,0,0,0,0,0,0,0,0,0,0,0,0,0,0,0,0,0,0,0,0,0,0,0,0,0,0,0,0,0,0,0,0,0,0,0,0,0,0,0,0,0,0,0,0,0,0,0,0,0,0,0,0,0,0,0,0,0,0,0,0,0,0,0,0,0,0,0,0,0,0,0,0,0,0,0,0,0,0,0,0,0,0,0,0,0,0,0,0,0,0,0,0,0,0,0,0,0,0,0,0,0,0,0,0,0,0,0,0,0,0,0,0,0,0,0,0,0,0,0,0,0,0,0,0,0,0,0,0,0,0,0,0],"sum_hessian":[1E3,8.93E2,1.07E2,1.59E2,7.34E2,7.8E1,2.9E1,1.1E2,4.9E1,6.15E2,1.19E2,2.4E1,5.4E1,1.6E1,1.3E1,9E1,2E1,2.8E1,2.1E1,5.94E2,2.1E1,1.17E2,2E0,2E0,2.2E1,1.7E1,3.7E1,8E0,8E0,8E0,8.2E1,4E0,1.6E1,2.4E1,4E0,1.7E1,4E0,5.16E2,7.8E1,9E0,1.2E1,2.7E1,9E1,1E1,1.2E1,1.6E1,1E0,3.4E1,3E0,7E0,1E0,4E0,7.8E1,3E0,1E0,9E0,7E0,2.3E1,1E0,2E0,2E0,1.5E1,2E0,7.1E1,4.45E2,1.5E1,6.3E1,3E0,6E0,8E0,4E0,2E1,7E0,7E1,2E1,1E0,9E0,3E0,1.3E1,1.5E1,1.9E1,1E0,3E0,2.7E1,5.1E1,2E0,1E0,6E0,3E0,6E0,1E0,5E0,1.8E1,1E0,1E0,6E0,9E0,1E0,1E0,5.9E1,1.2E1,3.09E2,1.36E2,1.3E1,2E0,8E0,5.5E1,4E0,2E0,4E0,4E0,3E0,1E0,9E0,1.1E1,2.3E1,4.7E1,1.8E1,2E0,8E0,1E0,9E0,4E0,1E0,1.4E1,6E0,1.3E1,2.2E1,5E0,4.6E1,5E0,1E0,1E0,3E0,3E0,2E0,1E0,4E0,2E0,8E0,1E1,5E0,1E0,5E0,5.4E1,3E0,9E0,3.6E1,2.73E2,4.1E1,9.5E1,3E0,1E1,1E0,1E0,6E0,2E0,5.1E1,4E0,2E0,2E0,4E0,5E0,1E1,1E0,1.5E1,8E0,1E1,3.7E1,4E0,1.4E1,2E0,6E0,1E0,8E0,1E0,3E0,4E0,1E1,2E0,4E0,1.2E1,1E0,1.5E1,7E0,3E1,1.6E1,2E0,3E0,1E0,2E0,5E0,3E0,8E0,2E0,3E0,5.1E1,1E0,2E0,7E0,2E0,1.8E1,1.8E1,2.57E2,1.6E1,3.5E1,6E0,7E1,2.5E1,2E0,1E0,1E0,9E0,1E0,5E0,3.8E1,1.3E1,1E0,1E0,1E0,1E0,2E0,3E0,9E0,1E0,4E0,1.1E1,3E0,5E0,4E0,6E0,1E1,2.7E1,7E0,7E0,2E0,1E0,1E0,3E0,9E0,1E0,3E0,1E0,9E0,3E0,5E0,1E1,5E0,2E0,2.3E1,7E0,1.4E1,2E0,1E0,2E0,1E0,4E0,2E0,1E0,5E0,3E0,5E0,4.6E1,4E0,3E0,1.4E1,4E0,7E0,1.1E1,1.8E2,7.7E1,1E1,6E0,3.2E1,3E0,4E0,2E0,4.2E1,2.8E1,6E0,1.9E1,3E0,2E0,3.5E1,3E0,3E0,1E1,2E0,1E0,2E0,7E0,2E0,2E0,5E0,6E0,1E0,4E0,1E0,3E0,5E0,1E0,3E0,7E0,1.8E1,9E0,6E0,1E0,4E0,3E0,1E0,2E0,7E0,2E0,2E0,1E0,4E0,5E0,1E0,2E0],"tree_param":{"num_deleted":"0","num_feature":"3","num_nodes":"319","size_leaf_vector":"1"}},{"base_weights":[2.9402722E-3,-2.2852419E-2,2.1641922E-1,4.5574345E-2,-3.7716947E-2,1.4859886E-1,3.8779885E-1,-9.46423E-4,1.4793895E-1,-5.1020846E-2,3.0890696E-2,2.5337437E-1,9.827183E-2,5.1975596E-1,3.0649552E-1,-1.591036E-2,6.3942365E-2,1.0259306E-1,2.0098859E-1,-5.532886E-2,6.781051E-2,2.412388E-2,2.8675525E-2,4.2525135E-2,2.1993935E-1,8.644919E-2,2.2739816E-2,2.1378709E-2,5.6952477E-2,2.1061905E-1,3.9089777E-2,6.3638315E-2,-2.4344428E-2,-6.25453E-2,9.7383305E-2,1.2597334E-1,-3.4826946E-2,1.6579734E-1,2.874794E-2,-6.0024634E-2,1.5080866E-2,1.7133316E-1,-1.7038492E-2,7.141709E-2,9.307023E-3,1.3567959E-1,2.7431768E-1,1.4868814E-1,5.197062E-2,2.4449933E-2,1.142868E-1,7.612312E-2,-1.8120051E-3,-1.2302494E-1,-1.7790668E-2,-1.3301849E-2,-1.2975955E-2,1.4661193E-1,2.3674607E-2,8.260111E-2,1.660765E-2,7.385222E-2,-1.31897135E-2,1.799354E-1,3.5128593E-2,-7.4793294E-2,-4.399438E-2,-1.5127428E-2,1.302529E-1,5.8436275E-2,2.1136951E-1,-5.2050643E-2,